{"learner":{"attributes":{"scikit_learn":"{\"_estimator_type\": \"regressor\"}"},"feature_names":["temperature_2m_mean","precipitation_sum","wind_speed_10m_max","wind_direction_10m_dominant"],"feature_types":["float","float","float","float"],"gradient_booster":{"model":{"gbtree_model_param":{"num_parallel_tree":"1","num_trees":"100"},"iteration_indptr":[0,1,2,3,4,5,6,7,8,9,10,11,12,13,14,15,16,17,18,19,20,21,22,23,24,25,26,27,28,29,30,31,32,33,34,35,36,37,38,39,40,41,42,43,44,45,46,47,48,49,50,51,52,53,54,55,56,57,58,59,60,61,62,63,64,65,66,67,68,69,70,71,72,73,74,75,76,77,78,79,80,81,82,83,84,85,86,87,88,89,90,91,92,93,94,95,96,97,98,99,100],"tree_info":[0,0,0,0,0,0,0,0,0,0,0,0,0,0,0,0,0,0,0,0,0,0,0,0,0,0,0,0,0,0,0,0,0,0,0,0,0,0,0,0,0,0,0,0,0,0,0,0,0,0,0,0,0,0,0,0,0,0,0,0,0,0,0,0,0,0,0,0,0,0,0,0,0,0,0,0,0,0,0,0,0,0,0,0,0,0,0,0,0,0,0,0,0,0,0,0,0,0,0,0],"trees":[{"base_weights":[1.3533265E-8,8.8304895E-1,-1.3091022E0,-6.343487E-1,1.6190544E0,-7.2011745E-1,-1.6367278E0,-8.403582E-1,1.0828154E0,3.089323E0,5.543849E-1,-1.2171077E-2,-1.1646681E0,-1.359032E0,-1.9064134E0,-1.4911693E0,-3.861831E-1,7.8232783E-1,1.3283675E0,4.0954814E0,6.8676347E-1,1.2355105E0,1.06006175E-1,4.773003E0,-3.5384506E-1,-1.2671419E0,-6.228551E-2,-8.0008394E-1,-1.4645542E0,-1.9644047E0,-2.0614487E-1,-1.6406184E0,1.9206975E0,1.1398448E0,-5.713317E-1,3.5117522E-1,3.4714694E0,8.921003E-1,4.5992346E0,1.3184363E0,-1.1165916E-1,-9.529873E-1,1.483286E0,-5.102767E-2,2.3629053E0,7.5576277E0,7.951278E-1,1.0645635E0,-8.282554E-1,-1.3098547E0,-6.0833E-1,7.974695E-1,-4.4742092E-1,-9.742155E-1,3.4903082E-1,-1.2847419E0,-1.6767634E0,-1.3711857E0,-2.0668905E0,1.1651278E0,-1.0859691E0,-1.688435E-1,-5.12504E-1,1.2173674E0,-4.8711672E-2,6.791302E-1,-9.685401E-2,-3.1838244E-1,2.0983735E-2,1.5169042E-2,3.4415653E-1,1.1490383E0,3.0552554E-1,1.386401E-2,1.5844408E0,9.7239834E-1,1.748122E0,7.195202E-1,-2.0505688E-1,8.0220926E-1,-1.6811246E-1,3.4236744E-1,-3.8582712E-1,7.3928326E-1,1.7756267E-1,9.6344084E-1,-3.555078E-2,5.281144E-1,1.3763673E0,2.5913677E0,6.475256E-1,5.263674E-1,-3.1247446E-1,-2.1004447E-1,6.8631434E-1,5.8679473E-1,-3.4450194E-1,-3.516917E-1,-4.203673E-1,-3.1195623E-1,3.5240866E-2,8.230255E-1,-1.12461686E-1,-3.0195913E-1,4.758086E-3,-3.2046562E-1,1.1536739E-1,5.0536746E-1,-2.2196169E-1,-2.938275E-1,-4.4952783E-1,-5.1302016E-1,-1.649617E-1,-1.9416685E-1,-5.209094E-1,-6.3556796E-1,-3.916857E-1,1.493674E-1,4.7502556E-1,-4.4895914E-1,1.4502558E-1],"categories":[],"categories_nodes":[],"categories_segments":[],"categories_sizes":[],"default_left":[0,0,0,0,0,0,0,0,0,0,0,0,0,0,0,0,0,0,0,0,0,0,0,0,0,0,0,0,0,0,0,0,0,0,0,0,0,0,0,0,0,0,0,0,0,0,0,0,0,0,0,0,0,0,0,0,0,0,0,0,0,0,0,0,0,0,0,0,0,0,0,0,0,0,0,0,0,0,0,0,0,0,0,0,0,0,0,0,0,0,0,0,0,0,0,0,0,0,0,0,0,0,0,0,0,0,0,0,0,0,0,0,0,0,0,0,0,0,0,0,0],"id":0,"left_children":[1,3,5,7,9,11,13,15,17,19,21,23,25,27,29,31,33,35,-1,37,39,41,43,45,47,49,51,53,55,57,59,61,63,65,67,69,71,73,75,77,79,81,83,85,87,89,91,93,95,97,99,101,103,105,107,109,111,113,115,117,119,-1,-1,-1,-1,-1,-1,-1,-1,-1,-1,-1,-1,-1,-1,-1,-1,-1,-1,-1,-1,-1,-1,-1,-1,-1,-1,-1,-1,-1,-1,-1,-1,-1,-1,-1,-1,-1,-1,-1,-1,-1,-1,-1,-1,-1,-1,-1,-1,-1,-1,-1,-1,-1,-1,-1,-1,-1,-1,-1,-1],"loss_changes":[2.1293542E3,1.2295212E3,1.4200256E2,1.2826071E2,1.1582119E3,8.401555E1,3.3057007E1,9.460159E1,3.5736935E1,7.4898486E2,1.3149736E2,1.7172574E2,1.8447388E1,1.2865784E1,2.3160645E1,7.045795E1,5.4616722E1,4.1679832E1,0E0,3.493003E2,4.7051006E1,9.413937E1,9.262147E1,7.1528946E1,6.682669E1,3.4241638E0,5.323636E0,8.343918E0,5.439209E0,1.1209839E1,1.2123603E1,8.309235E0,2.7370428E1,3.525384E1,5.3800632E1,7.8385944E0,4.9835968E-1,1.1485614E2,2.9623022E2,1.1406566E2,5.399773E1,1.4024307E1,1.3320926E2,5.431407E1,1.4713905E1,4.6860657E0,8.876293E0,5.5564457E1,6.8194244E1,1.1680603E-1,3.56735E0,1.2435016E1,2.8652382E0,4.8813057E0,9.971916E0,5.839447E0,2.3622742E0,8.658096E0,4.904175E0,3.2802486E-1,4.58943E0,0E0,0E0,0E0,0E0,0E0,0E0,0E0,0E0,0E0,0E0,0E0,0E0,0E0,0E0,0E0,0E0,0E0,0E0,0E0,0E0,0E0,0E0,0E0,0E0,0E0,0E0,0E0,0E0,0E0,0E0,0E0,0E0,0E0,0E0,0E0,0E0,0E0,0E0,0E0,0E0,0E0,0E0,0E0,0E0,0E0,0E0,0E0,0E0,0E0,0E0,0E0,0E0,0E0,0E0,0E0,0E0,0E0,0E0,0E0,0E0],"parents":[2147483647,0,0,1,1,2,2,3,3,4,4,5,5,6,6,7,7,8,8,9,9,10,10,11,11,12,12,13,13,14,14,15,15,16,16,17,17,19,19,20,20,21,21,22,22,23,23,24,24,25,25,26,26,27,27,28,28,29,29,30,30,31,31,32,32,33,33,34,34,35,35,36,36,37,37,38,38,39,39,40,40,41,41,42,42,43,43,44,44,45,45,46,46,47,47,48,48,49,49,50,50,51,51,52,52,53,53,54,54,55,55,56,56,57,57,58,58,59,59,60,60],"right_children":[2,4,6,8,10,12,14,16,18,20,22,24,26,28,30,32,34,36,-1,38,40,42,44,46,48,50,52,54,56,58,60,62,64,66,68,70,72,74,76,78,80,82,84,86,88,90,92,94,96,98,100,102,104,106,108,110,112,114,116,118,120,-1,-1,-1,-1,-1,-1,-1,-1,-1,-1,-1,-1,-1,-1,-1,-1,-1,-1,-1,-1,-1,-1,-1,-1,-1,-1,-1,-1,-1,-1,-1,-1,-1,-1,-1,-1,-1,-1,-1,-1,-1,-1,-1,-1,-1,-1,-1,-1,-1,-1,-1,-1,-1,-1,-1,-1,-1,-1,-1,-1],"split_conditions":[2.4318013E2,9.076677E1,2.608625E2,1.6422499E1,7.91625E0,8.312084E0,2.7987094E2,4.3488514E1,2.8277763E1,2.9810522E1,1.3280833E1,1.8129137E1,1.8435E1,2.0696087E1,1.7507917E1,1.06E1,1.4386494E1,2.1168333E1,1.3283675E0,1.8599998E0,3.668822E1,1.3633737E1,2.0564167E1,2.5298706E2,1E-1,4.7000003E0,1.624394E1,4.1000004E0,5E-1,1.51884165E1,1.7884428E1,1.2287555E1,1.3500001E1,5.085E0,2E-1,1.5999999E0,1.872346E1,2.6867676E1,4E-1,5.6E0,2.0910973E2,9.96733E1,2.2870626E1,9.793059E0,1.8000001E0,5.96625E0,8.000001E-1,2.4442913E1,2.1129883E1,1.4443334E1,2.5607095E2,1.8643332E1,1.899333E1,2.0240198E1,4.8E0,8.882918E0,1.7482916E1,3.0282114E2,1.5316249E1,1.9166248E1,9.000001E-1,-1.688435E-1,-5.12504E-1,1.2173674E0,-4.8711672E-2,6.791302E-1,-9.685401E-2,-3.1838244E-1,2.0983735E-2,1.5169042E-2,3.4415653E-1,1.1490383E0,3.0552554E-1,1.386401E-2,1.5844408E0,9.7239834E-1,1.748122E0,7.195202E-1,-2.0505688E-1,8.0220926E-1,-1.6811246E-1,3.4236744E-1,-3.8582712E-1,7.3928326E-1,1.7756267E-1,9.6344084E-1,-3.555078E-2,5.281144E-1,1.3763673E0,2.5913677E0,6.475256E-1,5.263674E-1,-3.1247446E-1,-2.1004447E-1,6.8631434E-1,5.8679473E-1,-3.4450194E-1,-3.516917E-1,-4.203673E-1,-3.1195623E-1,3.5240866E-2,8.230255E-1,-1.12461686E-1,-3.0195913E-1,4.758086E-3,-3.2046562E-1,1.1536739E-1,5.0536746E-1,-2.2196169E-1,-2.938275E-1,-4.4952783E-1,-5.1302016E-1,-1.649617E-1,-1.9416685E-1,-5.209094E-1,-6.3556796E-1,-3.916857E-1,1.493674E-1,4.7502556E-1,-4.4895914E-1,1.4502558E-1],"split_indices":[3,3,3,0,0,0,3,3,2,2,0,2,0,2,0,1,2,0,0,0,2,2,0,3,1,1,2,1,1,2,2,2,1,0,1,1,2,2,1,1,3,3,2,2,1,0,1,2,2,0,3,0,0,2,1,0,0,3,0,0,1,0,0,0,0,0,0,0,0,0,0,0,0,0,0,0,0,0,0,0,0,0,0,0,0,0,0,0,0,0,0,0,0,0,0,0,0,0,0,0,0,0,0,0,0,0,0,0,0,0,0,0,0,0,0,0,0,0,0,0,0],"split_type":[0,0,0,0,0,0,0,0,0,0,0,0,0,0,0,0,0,0,0,0,0,0,0,0,0,0,0,0,0,0,0,0,0,0,0,0,0,0,0,0,0,0,0,0,0,0,0,0,0,0,0,0,0,0,0,0,0,0,0,0,0,0,0,0,0,0,0,0,0,0,0,0,0,0,0,0,0,0,0,0,0,0,0,0,0,0,0,0,0,0,0,0,0,0,0,0,0,0,0,0,0,0,0,0,0,0,0,0,0,0,0,0,0,0,0,0,0,0,0,0,0],"sum_hessian":[1.84E3,1.099E3,7.41E2,3.59E2,7.4E2,2.66E2,4.75E2,3.21E2,3.8E1,3.1E2,4.3E2,1.03E2,1.63E2,2.37E2,2.38E2,1.31E2,1.9E2,3.6E1,2E0,2.18E2,9.2E1,1.7E2,2.6E2,6E0,9.7E1,1.49E2,1.4E1,3.9E1,1.98E2,2.3E2,8E0,1.26E2,5E0,2E1,1.7E2,3.2E1,4E0,3E1,1.88E2,5.1E1,4.1E1,1.7E1,1.53E2,2.44E2,1.6E1,3E0,3E0,2.4E1,7.3E1,1.39E2,1E1,4E0,1E1,3.4E1,5E0,1.11E2,8.7E1,3.6E1,1.94E2,3E0,5E0,8E0,1.18E2,2E0,3E0,1.1E1,9E0,9.6E1,7.4E1,2.4E1,8E0,3E0,1E0,2.6E1,4E0,9.1E1,9.7E1,3.3E1,1.8E1,5E0,3.6E1,2E0,1.5E1,7.2E1,8.1E1,4E0,2.4E2,1.4E1,2E0,2E0,1E0,2E0,1E0,1E1,1.4E1,7E0,6.6E1,6.1E1,7.8E1,6E0,4E0,1E0,3E0,4E0,6E0,3.2E1,2E0,2E0,3E0,4.8E1,6.3E1,8.4E1,3E0,1.3E1,2.3E1,1.8E2,1.4E1,2E0,1E0,4E0,1E0],"tree_param":{"num_deleted":"0","num_feature":"4","num_nodes":"121","size_leaf_vector":"1"}},{"base_weights":[7.527779E-3,6.3003206E-1,-9.153324E-1,-4.3317065E-1,1.1457175E0,-4.90839E-1,-1.1515181E0,-5.858526E-1,8.3854145E-1,2.2178845E0,4.0721712E-1,6.829048E-1,-6.6504586E-1,-9.2446184E-1,-1.3242913E0,-1.0401269E0,-2.6883665E-1,5.9665346E-1,1.062694E0,3.0547142E0,6.6427267E-1,8.7208784E-1,8.505639E-2,1.6886986E0,4.3302678E-2,-3.5870427E-1,-9.555016E-1,-3.1167367E-2,-9.739319E-1,-1.3685908E0,-1.6487709E-1,-1.153798E0,1.5392643E0,8.256187E-1,-4.016713E-1,5.5469032E-2,2.0523045E0,2.1341488E0,4.7181587E0,1.4638418E0,1.6506955E-1,-5.9923876E-2,1.3270351E0,-1.2154139E-1,1.1965942E0,3.003173E0,-7.55251E-1,3.7170365E-1,-7.384097E-1,-1.0061159E0,-1.9413744E-3,-5.100092E-1,1.0540187E0,-1.084861E0,-7.5559205E-1,-1.1860048E0,-1.516373E0,-5.91919E-1,3.5136232E-1,-3.527659E-1,2.4440111E-1,9.7389394E-1,-3.7751522E-2,-4.7676602E-1,3.9491457E-1,-3.2257885E-1,-3.1930313E-2,2.1596828E-1,-1.9811316E-1,1.1933504E-1,8.1136763E-1,5.399789E-1,1.6576185E0,2.3966546E0,9.6604365E-1,6.663231E-1,-2.4097835E-1,-1.4490801E-2,7.0272124E-1,-2.8067347E-1,5.2144915E-1,9.823071E-1,1.1881204E-1,-5.5443328E-2,1.0071129E0,2.1686016E-1,9.181079E-1,1.729829E-2,1.5593678E0,-2.627744E-1,3.3920085E-1,1.254292E0,-5.030599E-2,-2.4794786E-1,7.437269E-2,-3.056858E-1,6.4739406E-2,7.2137766E-2,-4.4098035E-2,-7.559956E-2,-2.3085691E-1,-2.7940464E-1,6.0787725E-1,-3.4791788E-1,-1.3157101E-1,-1.4074944E-1,-3.5831326E-1,-2.4285635E-1,-4.0923828E-1,-4.60701E-1,-3.8907245E-2,2.1572672E-2,-3.4120893E-1],"categories":[],"categories_nodes":[],"categories_segments":[],"categories_sizes":[],"default_left":[0,0,0,0,0,0,0,0,0,0,0,0,0,0,0,0,0,0,0,0,0,0,0,0,0,0,0,0,0,0,0,0,0,0,0,0,0,0,0,0,0,0,0,0,0,0,0,0,0,0,0,0,0,0,0,0,0,0,0,0,0,0,0,0,0,0,0,0,0,0,0,0,0,0,0,0,0,0,0,0,0,0,0,0,0,0,0,0,0,0,0,0,0,0,0,0,0,0,0,0,0,0,0,0,0,0,0,0,0,0,0,0,0],"id":1,"left_children":[1,3,5,7,9,11,13,15,17,19,21,23,25,27,29,31,33,35,-1,37,39,41,43,-1,45,47,49,51,53,55,57,59,61,63,65,67,69,71,73,75,77,79,81,83,85,87,89,91,93,95,97,99,101,103,105,107,109,111,-1,-1,-1,-1,-1,-1,-1,-1,-1,-1,-1,-1,-1,-1,-1,-1,-1,-1,-1,-1,-1,-1,-1,-1,-1,-1,-1,-1,-1,-1,-1,-1,-1,-1,-1,-1,-1,-1,-1,-1,-1,-1,-1,-1,-1,-1,-1,-1,-1,-1,-1,-1,-1,-1,-1],"loss_changes":[1.0582024E3,6.036023E2,7.382709E1,7.039158E1,5.858176E2,5.5048775E1,1.7448914E1,4.6092308E1,2.3392857E1,3.9060352E2,6.582159E1,1.104798E2,2.0389282E1,9.205627E0,1.3539215E1,4.047867E1,2.809951E1,2.9033861E1,0E0,2.9006738E2,4.2467136E1,7.6402435E1,6.0081795E1,0E0,7.790385E1,3.2168556E1,5.741432E0,6.7731504E0,3.9759216E0,5.163208E0,6.9694667E0,6.479965E0,1.746298E1,2.6979408E1,3.3892174E1,1.3792935E1,9.715851E0,1.3513232E2,3.1234265E2,7.2170044E1,3.1240183E1,9.6096375E1,2.180698E2,4.9260086E1,3.3987328E1,4.4952282E1,6.9069815E0,8.2888405E1,6.8076286E0,1.9923477E0,2.814709E-1,4.0869737E-1,9.608157E0,5.7329865E0,8.237255E0,6.9429474E0,3.5202637E0,3.3405159E0,0E0,0E0,0E0,0E0,0E0,0E0,0E0,0E0,0E0,0E0,0E0,0E0,0E0,0E0,0E0,0E0,0E0,0E0,0E0,0E0,0E0,0E0,0E0,0E0,0E0,0E0,0E0,0E0,0E0,0E0,0E0,0E0,0E0,0E0,0E0,0E0,0E0,0E0,0E0,0E0,0E0,0E0,0E0,0E0,0E0,0E0,0E0,0E0,0E0,0E0,0E0,0E0,0E0,0E0,0E0],"parents":[2147483647,0,0,1,1,2,2,3,3,4,4,5,5,6,6,7,7,8,8,9,9,10,10,11,11,12,12,13,13,14,14,15,15,16,16,17,17,19,19,20,20,21,21,22,22,24,24,25,25,26,26,27,27,28,28,29,29,30,30,31,31,32,32,33,33,34,34,35,35,36,36,37,37,38,38,39,39,40,40,41,41,42,42,43,43,44,44,45,45,46,46,47,47,48,48,49,49,50,50,51,51,52,52,53,53,54,54,55,55,56,56,57,57],"right_children":[2,4,6,8,10,12,14,16,18,20,22,24,26,28,30,32,34,36,-1,38,40,42,44,-1,46,48,50,52,54,56,58,60,62,64,66,68,70,72,74,76,78,80,82,84,86,88,90,92,94,96,98,100,102,104,106,108,110,112,-1,-1,-1,-1,-1,-1,-1,-1,-1,-1,-1,-1,-1,-1,-1,-1,-1,-1,-1,-1,-1,-1,-1,-1,-1,-1,-1,-1,-1,-1,-1,-1,-1,-1,-1,-1,-1,-1,-1,-1,-1,-1,-1,-1,-1,-1,-1,-1,-1,-1,-1,-1,-1,-1,-1],"split_conditions":[2.4318013E2,9.076677E1,2.608625E2,1.6422499E1,7.4912505E0,3.805833E0,2.7555115E2,4.3488514E1,2.8277763E1,2.7595825E1,1.3280833E1,1.8440998E1,2.5239929E2,1.6712881E1,1.7507917E1,1.06E1,1.4386494E1,1.9935001E1,1.062694E0,5.085E0,2.7E0,1.872346E1,1.9166248E1,1.6886986E0,1E-1,8.312084E0,1.8799582E1,1.6171976E1,2.6929626E2,2.0620806E1,1.3E0,1.6053751E1,1.3500001E1,-1.3166666E-1,1.8584509E1,6.214045E1,1.6363178E1,5.6000004E0,5.839167E0,2.3463249E2,5.221117E1,6E-1,2.297522E1,2.4243605E2,2.0000002E0,2.3762726E1,2.605107E2,1.942833E1,1.8435E1,4.3635803E1,2.0969805E1,1.4982228E1,3E-1,1.716625E1,1.2712086E1,3.005181E2,7.7000003E0,2.0240198E1,3.5136232E-1,-3.527659E-1,2.4440111E-1,9.7389394E-1,-3.7751522E-2,-4.7676602E-1,3.9491457E-1,-3.2257885E-1,-3.1930313E-2,2.1596828E-1,-1.9811316E-1,1.1933504E-1,8.1136763E-1,5.399789E-1,1.6576185E0,2.3966546E0,9.6604365E-1,6.663231E-1,-2.4097835E-1,-1.4490801E-2,7.0272124E-1,-2.8067347E-1,5.2144915E-1,9.823071E-1,1.1881204E-1,-5.5443328E-2,1.0071129E0,2.1686016E-1,9.181079E-1,1.729829E-2,1.5593678E0,-2.627744E-1,3.3920085E-1,1.254292E0,-5.030599E-2,-2.4794786E-1,7.437269E-2,-3.056858E-1,6.4739406E-2,7.2137766E-2,-4.4098035E-2,-7.559956E-2,-2.3085691E-1,-2.7940464E-1,6.0787725E-1,-3.4791788E-1,-1.3157101E-1,-1.4074944E-1,-3.5831326E-1,-2.4285635E-1,-4.0923828E-1,-4.60701E-1,-3.8907245E-2,2.1572672E-2,-3.4120893E-1],"split_indices":[3,3,3,0,0,0,3,3,2,2,0,2,3,2,0,1,2,0,0,0,1,2,0,0,1,0,0,2,3,2,1,0,1,0,2,3,2,1,0,3,2,1,2,3,1,2,3,2,0,2,2,2,1,0,0,3,1,2,0,0,0,0,0,0,0,0,0,0,0,0,0,0,0,0,0,0,0,0,0,0,0,0,0,0,0,0,0,0,0,0,0,0,0,0,0,0,0,0,0,0,0,0,0,0,0,0,0,0,0,0,0,0,0],"split_type":[0,0,0,0,0,0,0,0,0,0,0,0,0,0,0,0,0,0,0,0,0,0,0,0,0,0,0,0,0,0,0,0,0,0,0,0,0,0,0,0,0,0,0,0,0,0,0,0,0,0,0,0,0,0,0,0,0,0,0,0,0,0,0,0,0,0,0,0,0,0,0,0,0,0,0,0,0,0,0,0,0,0,0,0,0,0,0,0,0,0,0,0,0,0,0,0,0,0,0,0,0,0,0,0,0,0,0,0,0,0,0,0,0],"sum_hessian":[1.84E3,1.099E3,7.41E2,3.59E2,7.4E2,2.66E2,4.75E2,3.21E2,3.8E1,3.01E2,4.39E2,3.4E1,2.32E2,2.08E2,2.67E2,1.31E2,1.9E2,3.6E1,2E0,1.95E2,1.06E2,1.79E2,2.6E2,3E0,3.1E1,1.14E2,1.18E2,1.1E1,1.97E2,2.57E2,1E1,1.26E2,5E0,2E1,1.7E2,2.7E1,9E0,1.27E2,6.8E1,4E1,6.6E1,5.9E1,1.2E2,2.2E2,4E1,6E0,2.5E1,3.9E1,7.5E1,1.12E2,6E0,8E0,3E0,1.28E2,6.9E1,1.19E2,1.38E2,8E0,2E0,1.25E2,1E0,2E0,3E0,3E0,1.7E1,5.1E1,1.19E2,1.4E1,1.3E1,3E0,6E0,1.17E2,1E1,2E1,4.8E1,3E1,1E1,6.1E1,5E0,4E1,1.9E1,3.8E1,8.2E1,2.17E2,3E0,3.3E1,7E0,3E0,3E0,2.4E1,1E0,4E0,3.5E1,6.9E1,6E0,1.11E2,1E0,2E0,4E0,5E0,3E0,1E0,2E0,1.14E2,1.4E1,4.3E1,2.6E1,4E1,7.9E1,1.36E2,2E0,4E0,4E0],"tree_param":{"num_deleted":"0","num_feature":"4","num_nodes":"113","size_leaf_vector":"1"}},{"base_weights":[1.3193309E-2,4.8341694E-1,-6.102259E-1,-2.9654542E-1,8.890653E-1,-3.0768633E-1,-8.104251E-1,-4.0888134E-1,6.3854957E-1,1.7315367E0,3.212003E-1,2.6532394E-1,-4.8636854E-1,-7.1540046E-1,-1.0356617E0,-7.218179E-1,-1.9047028E-1,4.432941E-1,8.5015506E-1,2.2030709E0,3.5182667E-1,6.401076E-1,-5.08701E-2,-1.8813463E-1,3.276964E0,2.7309198E0,-5.245581E-1,-3.5165495E-1,-7.700656E-1,-1.0767357E0,6.1976933E-1,-8.085119E-1,1.2335086E0,4.423269E-2,-7.4300414E-1,1.6213979E-1,2.2102537E0,1.4465513E0,3.6014543E0,1.8296406E-1,4.1746783E0,-1.2975234E-1,1.5382916E0,1.1333523E0,-3.5044023E-1,3.1969764E0,-4.5380798E-1,5.4496317E0,1.4369917E-2,-2.3752852E-1,1.4664426E0,-5.7363087E-1,-1.2217641E-2,-4.7278273E-1,5.346607E-1,-6.736702E-1,-9.0152305E-1,-3.497273E-1,-1.1075997E0,4.6209376E-2,3.5106736E-1,-2.9747674E-2,-2.566099E-1,7.7911514E-1,-2.9257448E-2,-5.1940918E-2,9.3199116E-1,-8.925939E-2,-3.9039245E-1,2.1911584E-1,-7.312189E-2,7.5984937E-1,1.3799158E-1,-5.5986834E-1,5.00454E-1,1.3454242E0,6.8890065E-2,7.032484E-1,-5.8037685E-3,3.9177117E-1,1.4868342E0,-2.3145558E-1,1.4802137E-1,2.2506823E-1,9.3465984E-1,1.35674E-1,2.0939896E0,-5.2925095E-2,-3.724031E-1,1.3087416E0,-2.1975042E-1,-2.0531392E-1,9.354659E-1,2.3704488E0,6.744977E-1,2.3678003E-1,-2.2959508E-1,-1.2839364E-1,-2.3101264E-1,7.135753E-2,-1.7462242E-1,-1.7009085E-1,2.7277204E-1,5.5537516E-1,-1.7593403E-1,-2.1540232E-1,-3.5650816E-2,-2.7537298E-1,1.4697814E-2,-1.5672365E-1,1.6396964E-2,-2.4270503E-1,-3.5559645E-1,-3.1253513E-2,5.2047733E-2],"categories":[],"categories_nodes":[],"categories_segments":[],"categories_sizes":[],"default_left":[0,0,0,0,0,0,0,0,0,0,0,0,0,0,0,0,0,0,0,0,0,0,0,0,0,0,0,0,0,0,0,0,0,0,0,0,0,0,0,0,0,0,0,0,0,0,0,0,0,0,0,0,0,0,0,0,0,0,0,0,0,0,0,0,0,0,0,0,0,0,0,0,0,0,0,0,0,0,0,0,0,0,0,0,0,0,0,0,0,0,0,0,0,0,0,0,0,0,0,0,0,0,0,0,0,0,0,0,0,0,0,0,0,0,0],"id":2,"left_children":[1,3,5,7,9,11,13,15,17,19,21,23,25,27,29,31,33,35,-1,37,39,41,43,45,47,49,51,53,55,57,59,61,63,65,67,69,71,73,75,77,79,81,83,85,87,89,91,93,95,-1,-1,97,99,101,103,105,107,109,111,113,-1,-1,-1,-1,-1,-1,-1,-1,-1,-1,-1,-1,-1,-1,-1,-1,-1,-1,-1,-1,-1,-1,-1,-1,-1,-1,-1,-1,-1,-1,-1,-1,-1,-1,-1,-1,-1,-1,-1,-1,-1,-1,-1,-1,-1,-1,-1,-1,-1,-1,-1,-1,-1,-1,-1],"loss_changes":[5.399776E2,3.3247363E2,4.7720642E1,3.807719E1,3.3002515E2,3.258564E1,9.44693E0,2.187083E1,1.5460905E1,1.8008624E2,4.9156128E1,1.04406204E2,3.1166302E1,6.450058E0,1.0118652E1,2.3373306E1,2.4802002E1,1.8022799E1,0E0,2.1377661E2,4.571482E1,1.5439871E2,6.851065E1,6.170618E1,7.0807014E1,2.6667858E1,6.0270615E0,5.191221E0,3.105545E0,2.6642609E0,1.2088009E0,4.1361923E0,1.1142794E1,9.040359E1,1.37892475E1,7.7891273E0,1.6579762E0,1.0296527E2,2.1340808E2,3.0651567E1,2.5308228E-1,4.8771114E1,1.2568828E2,1.5214761E2,2.365684E1,2.6094452E1,5.402137E1,2.932988E1,3.624923E0,0E0,0E0,5.9355316E0,3.2736192E0,5.852412E0,9.941891E0,4.170471E0,1.9296494E0,5.173699E-1,2.0578918E0,7.5499594E-2,0E0,0E0,0E0,0E0,0E0,0E0,0E0,0E0,0E0,0E0,0E0,0E0,0E0,0E0,0E0,0E0,0E0,0E0,0E0,0E0,0E0,0E0,0E0,0E0,0E0,0E0,0E0,0E0,0E0,0E0,0E0,0E0,0E0,0E0,0E0,0E0,0E0,0E0,0E0,0E0,0E0,0E0,0E0,0E0,0E0,0E0,0E0,0E0,0E0,0E0,0E0,0E0,0E0,0E0,0E0],"parents":[2147483647,0,0,1,1,2,2,3,3,4,4,5,5,6,6,7,7,8,8,9,9,10,10,11,11,12,12,13,13,14,14,15,15,16,16,17,17,19,19,20,20,21,21,22,22,23,23,24,24,25,25,26,26,27,27,28,28,29,29,30,30,31,31,32,32,33,33,34,34,35,35,36,36,37,37,38,38,39,39,40,40,41,41,42,42,43,43,44,44,45,45,46,46,47,47,48,48,51,51,52,52,53,53,54,54,55,55,56,56,57,57,58,58,59,59],"right_children":[2,4,6,8,10,12,14,16,18,20,22,24,26,28,30,32,34,36,-1,38,40,42,44,46,48,50,52,54,56,58,60,62,64,66,68,70,72,74,76,78,80,82,84,86,88,90,92,94,96,-1,-1,98,100,102,104,106,108,110,112,114,-1,-1,-1,-1,-1,-1,-1,-1,-1,-1,-1,-1,-1,-1,-1,-1,-1,-1,-1,-1,-1,-1,-1,-1,-1,-1,-1,-1,-1,-1,-1,-1,-1,-1,-1,-1,-1,-1,-1,-1,-1,-1,-1,-1,-1,-1,-1,-1,-1,-1,-1,-1,-1,-1,-1],"split_conditions":[2.3985866E2,9.076677E1,2.608625E2,1.6422499E1,7.4912505E0,5.085E0,3.005181E2,4.3488514E1,2.8277763E1,3.125372E1,1.9800679E2,4.8454165E0,9.793059E0,1.8129137E1,7.8E0,1.06E1,2.6319422E1,2.1168333E1,8.5015506E-1,5.085E0,2.389794E2,1.9562946E1,1.6712881E1,1.8440998E1,2.5043204E2,8.970416E0,1.8205832E1,2.8999999E0,5E-1,1.1269782E1,1.5607915E1,1.2287555E1,1.3500001E1,2.5199999E1,5.4370837E0,1.8388212E1,1.872346E1,-6.733332E-1,2.2070627E2,1E-1,1.6912497E0,1.5962082E1,1.6920221E2,2.3626512E2,7.2E0,3.805833E0,2.605107E2,2.2065973E1,2.5453233E2,-2.3752852E-1,1.4664426E0,1.3693334E1,5E-1,2.9614536E2,1.1530835E1,4E-1,1.2800001E1,5.5849996E0,-9.9625E-1,9.910001E0,3.5106736E-1,-2.9747674E-2,-2.566099E-1,7.7911514E-1,-2.9257448E-2,-5.1940918E-2,9.3199116E-1,-8.925939E-2,-3.9039245E-1,2.1911584E-1,-7.312189E-2,7.5984937E-1,1.3799158E-1,-5.5986834E-1,5.00454E-1,1.3454242E0,6.8890065E-2,7.032484E-1,-5.8037685E-3,3.9177117E-1,1.4868342E0,-2.3145558E-1,1.4802137E-1,2.2506823E-1,9.3465984E-1,1.35674E-1,2.0939896E0,-5.2925095E-2,-3.724031E-1,1.3087416E0,-2.1975042E-1,-2.0531392E-1,9.354659E-1,2.3704488E0,6.744977E-1,2.3678003E-1,-2.2959508E-1,-1.2839364E-1,-2.3101264E-1,7.135753E-2,-1.7462242E-1,-1.7009085E-1,2.7277204E-1,5.5537516E-1,-1.7593403E-1,-2.1540232E-1,-3.5650816E-2,-2.7537298E-1,1.4697814E-2,-1.5672365E-1,1.6396964E-2,-2.4270503E-1,-3.5559645E-1,-3.1253513E-2,5.2047733E-2],"split_indices":[3,3,3,0,0,0,3,3,2,2,3,0,2,2,1,1,2,0,0,0,3,2,2,2,3,0,0,1,1,2,0,2,1,2,0,2,2,0,3,1,0,0,3,3,1,0,3,2,3,0,0,0,1,3,0,1,1,0,0,0,0,0,0,0,0,0,0,0,0,0,0,0,0,0,0,0,0,0,0,0,0,0,0,0,0,0,0,0,0,0,0,0,0,0,0,0,0,0,0,0,0,0,0,0,0,0,0,0,0,0,0,0,0,0,0],"split_type":[0,0,0,0,0,0,0,0,0,0,0,0,0,0,0,0,0,0,0,0,0,0,0,0,0,0,0,0,0,0,0,0,0,0,0,0,0,0,0,0,0,0,0,0,0,0,0,0,0,0,0,0,0,0,0,0,0,0,0,0,0,0,0,0,0,0,0,0,0,0,0,0,0,0,0,0,0,0,0,0,0,0,0,0,0,0,0,0,0,0,0,0,0,0,0,0,0,0,0,0,0,0,0,0,0,0,0,0,0,0,0,0,0,0,0],"sum_hessian":[1.84E3,1.049E3,7.91E2,3.59E2,6.9E2,3.16E2,4.75E2,3.21E2,3.8E1,2.77E2,4.13E2,7.5E1,2.41E2,3.37E2,1.38E2,1.31E2,1.9E2,3.6E1,2E0,2.06E2,7.1E1,2.22E2,1.91E2,6.6E1,9E0,2E0,2.39E2,4.5E1,2.92E2,1.35E2,3E0,1.26E2,5E0,1.34E2,5.6E1,3.2E1,4E0,1.35E2,7.1E1,6.9E1,2E0,1.2E2,1.02E2,3.8E1,1.53E2,4E0,6.2E1,5E0,4E0,1E0,1E0,2.18E2,2.1E1,4E1,5E0,1.72E2,1.2E2,6E0,1.29E2,2E0,1E0,8E0,1.18E2,2E0,3E0,1.26E2,8E0,3.2E1,2.4E1,1.3E1,1.9E1,3E0,1E0,8E0,1.27E2,5.6E1,1.5E1,5E0,6.4E1,1E0,1E0,5.9E1,6.1E1,6.9E1,3.3E1,3.5E1,3E0,1.29E2,2.4E1,3E0,1E0,5.9E1,3E0,2E0,3E0,2E0,2E0,1.27E2,9.1E1,1.5E1,6E0,3.8E1,2E0,2E0,3E0,1.59E2,1.3E1,1.18E2,2E0,4E0,2E0,2.9E1,1E2,1E0,1E0],"tree_param":{"num_deleted":"0","num_feature":"4","num_nodes":"115","size_leaf_vector":"1"}},{"base_weights":[1.7280191E-2,3.737972E-1,-4.05232E-1,-1.169167E-1,8.1706446E-1,-1.934255E-1,-5.6813025E-1,-3.8484466E-1,2.2301547E-1,1.3193083E0,1.2562667E-1,5.269269E-1,-3.005392E-1,-5.992441E-1,-2.852371E-2,6.0708755E-1,-4.9944407E-1,-8.096804E-1,5.4234326E-1,-9.0841776E-1,1.6125382E0,-8.556199E-2,9.8192537E-1,-3.533529E-1,2.309571E0,1.6363418E-1,-4.631023E-1,-4.5283693E-1,-6.997441E-1,-1.5284063E-1,3.0508757E-1,1.8719732E0,-9.0593666E-2,-5.8331215E-1,1.0034404E0,-6.281637E-1,-5.504922E-1,9.950524E-1,-5.7688844E-1,3.6289113E0,-1.5889874E0,2.8573728E0,8.5904217E-1,-5.641752E-1,-1.2436467E-2,2.5350034E0,3.9163358E-3,2.2127478E0,-5.9028673E-1,2.2430146E0,1.0373565E0,-3.2573265E-1,2.111476E0,-1.431996E0,-4.1432628E-1,-7.1804994E-1,-3.6560154E-1,-5.7489693E-1,-8.006581E-1,-2.2200113E-2,-2.4994598E-1,1.847396E-2,1.8227093E0,-5.880089E-1,1.14728235E-1,-1.6407385E-1,-6.2701744E-1,-1.0347936E-1,4.3273354E-1,-2.1770817E-1,2.8399423E-1,1.6281943E-1,8.342219E-1,-4.6066865E-2,-4.4092804E-1,-4.763455E-1,2.290801E0,-1.0698248E0,-1.45647945E-2,1.3570243E0,7.090483E-1,-3.280713E-1,3.1273878E-1,5.997416E-2,-1.3107681E-1,4.8280266E-1,1.8954927E0,6.4427084E-1,-2.4386999E-1,-5.8439916E-1,1.5801357E0,-3.5693294E-1,-2.7366986E-2,1.4338039E-1,1.2464762E0,-1.4684446E-1,7.2498596E-1,8.6288E-1,-3.279479E-1,-5.3486556E-1,-2.9303703E-1,-3.804416E-1,-1.13254294E-1,-2.3636775E-1,-1.291639E-1,1.248791E-1,-1.2276785E-1,-1.8231688E-1,1.6362062E-1,-2.444896E-1,-2.8848859E-2,1.2032952E-1,-4.1564908E-2],"categories":[],"categories_nodes":[],"categories_segments":[],"categories_sizes":[],"default_left":[0,0,0,0,0,0,0,0,0,0,0,0,0,0,0,0,0,0,0,0,0,0,0,0,0,0,0,0,0,0,0,0,0,0,0,0,0,0,0,0,0,0,0,0,0,0,0,0,0,0,0,0,0,0,0,0,0,0,0,0,0,0,0,0,0,0,0,0,0,0,0,0,0,0,0,0,0,0,0,0,0,0,0,0,0,0,0,0,0,0,0,0,0,0,0,0,0,0,0,0,0,0,0,0,0,0,0,0,0,0,0,0,0],"id":3,"left_children":[1,3,5,7,9,11,13,15,17,19,21,23,25,27,29,31,33,35,37,39,41,43,45,47,49,51,53,55,57,59,-1,61,63,65,67,69,-1,71,73,75,77,79,81,-1,83,85,87,89,91,-1,93,95,97,99,101,103,105,107,109,111,-1,-1,-1,-1,-1,-1,-1,-1,-1,-1,-1,-1,-1,-1,-1,-1,-1,-1,-1,-1,-1,-1,-1,-1,-1,-1,-1,-1,-1,-1,-1,-1,-1,-1,-1,-1,-1,-1,-1,-1,-1,-1,-1,-1,-1,-1,-1,-1,-1,-1,-1,-1,-1],"loss_changes":[2.7746643E2,2.1739542E2,2.8976074E1,4.334756E1,1.8215115E2,2.8553093E1,7.974594E0,3.054071E1,6.969051E1,2.0004858E2,4.0230618E1,7.6138916E1,2.4297628E1,6.3043976E0,3.664653E0,2.4879223E1,3.070985E1,8.152737E0,8.215055E1,1.1693315E2,2.4986139E2,2.3472494E1,6.682274E1,2.1370028E1,9.7423416E1,8.075735E1,1.0654274E1,4.0407715E0,2.8783875E0,2.2034135E0,0E0,7.57298E1,1.755094E1,1.130661E1,8.192781E0,7.4450073E0,0E0,9.137674E1,1.7539429E1,1.1664418E2,9.728584E1,7.241394E1,6.166719E1,0E0,1.568153E1,4.936669E1,5.077294E1,4.838571E1,9.166147E0,0E0,2.2430687E1,3.171878E1,4.480909E1,1.5489578E-2,6.6874237E0,5.643749E-1,5.0137615E0,4.818001E0,1.3730621E0,1.1390853E0,0E0,0E0,0E0,0E0,0E0,0E0,0E0,0E0,0E0,0E0,0E0,0E0,0E0,0E0,0E0,0E0,0E0,0E0,0E0,0E0,0E0,0E0,0E0,0E0,0E0,0E0,0E0,0E0,0E0,0E0,0E0,0E0,0E0,0E0,0E0,0E0,0E0,0E0,0E0,0E0,0E0,0E0,0E0,0E0,0E0,0E0,0E0,0E0,0E0,0E0,0E0,0E0,0E0],"parents":[2147483647,0,0,1,1,2,2,3,3,4,4,5,5,6,6,7,7,8,8,9,9,10,10,11,11,12,12,13,13,14,14,15,15,16,16,17,17,18,18,19,19,20,20,21,21,22,22,23,23,24,24,25,25,26,26,27,27,28,28,29,29,31,31,32,32,33,33,34,34,35,35,37,37,38,38,39,39,40,40,41,41,42,42,44,44,45,45,46,46,47,47,48,48,50,50,51,51,52,52,53,53,54,54,55,55,56,56,57,57,58,58,59,59],"right_children":[2,4,6,8,10,12,14,16,18,20,22,24,26,28,30,32,34,36,38,40,42,44,46,48,50,52,54,56,58,60,-1,62,64,66,68,70,-1,72,74,76,78,80,82,-1,84,86,88,90,92,-1,94,96,98,100,102,104,106,108,110,112,-1,-1,-1,-1,-1,-1,-1,-1,-1,-1,-1,-1,-1,-1,-1,-1,-1,-1,-1,-1,-1,-1,-1,-1,-1,-1,-1,-1,-1,-1,-1,-1,-1,-1,-1,-1,-1,-1,-1,-1,-1,-1,-1,-1,-1,-1,-1,-1,-1,-1,-1,-1,-1],"split_conditions":[2.3626512E2,1.21349495E2,2.608625E2,2E-1,1.1039166E1,1.8129137E1,1.7507917E1,1.3089354E1,1.9454168E0,1.4917212E1,5.4E0,6E-1,5.4829173E0,2.7439383E2,3.0282114E2,5.7266674E0,1.9935001E1,1.0149443E2,4.2999997E0,2.9370832E0,1.8566357E2,1.1376668E1,1.9800679E2,2.3794652E2,7E-1,4.8454165E0,2.3740324E2,2.6349756E2,2.0620806E1,2.910776E2,3.0508757E-1,6.3232296E1,7.06625E0,1.201456E2,1.6363178E1,9.96733E1,-5.504922E-1,2.7000003E0,8.422668E1,1.1841756E1,7.2641673E0,1.3439505E2,1.9454168E0,-5.641752E-1,8.000001E-1,1.9210497E2,7.2E0,2.0849998E0,1.3280833E1,2.2430146E0,7.2E0,2.605107E2,2.5089825E2,2.5812277E1,1.872346E1,3.312E1,1.7429354E1,1.6101665E1,5.6000004E0,1.763083E1,-2.4994598E-1,1.847396E-2,1.8227093E0,-5.880089E-1,1.14728235E-1,-1.6407385E-1,-6.2701744E-1,-1.0347936E-1,4.3273354E-1,-2.1770817E-1,2.8399423E-1,1.6281943E-1,8.342219E-1,-4.6066865E-2,-4.4092804E-1,-4.763455E-1,2.290801E0,-1.0698248E0,-1.45647945E-2,1.3570243E0,7.090483E-1,-3.280713E-1,3.1273878E-1,5.997416E-2,-1.3107681E-1,4.8280266E-1,1.8954927E0,6.4427084E-1,-2.4386999E-1,-5.8439916E-1,1.5801357E0,-3.5693294E-1,-2.7366986E-2,1.4338039E-1,1.2464762E0,-1.4684446E-1,7.2498596E-1,8.6288E-1,-3.279479E-1,-5.3486556E-1,-2.9303703E-1,-3.804416E-1,-1.13254294E-1,-2.3636775E-1,-1.291639E-1,1.248791E-1,-1.2276785E-1,-1.8231688E-1,1.6362062E-1,-2.444896E-1,-2.8848859E-2,1.2032952E-1,-4.1564908E-2],"split_indices":[3,3,3,1,0,2,0,2,0,2,1,1,0,3,3,0,0,3,1,0,3,0,3,3,1,0,3,3,2,3,0,3,0,3,2,3,0,1,3,2,0,3,0,0,1,3,1,0,0,0,1,3,3,2,2,2,2,0,1,0,0,0,0,0,0,0,0,0,0,0,0,0,0,0,0,0,0,0,0,0,0,0,0,0,0,0,0,0,0,0,0,0,0,0,0,0,0,0,0,0,0,0,0,0,0,0,0,0,0,0,0,0,0],"split_type":[0,0,0,0,0,0,0,0,0,0,0,0,0,0,0,0,0,0,0,0,0,0,0,0,0,0,0,0,0,0,0,0,0,0,0,0,0,0,0,0,0,0,0,0,0,0,0,0,0,0,0,0,0,0,0,0,0,0,0,0,0,0,0,0,0,0,0,0,0,0,0,0,0,0,0,0,0,0,0,0,0,0,0,0,0,0,0,0,0,0,0,0,0,0,0,0,0,0,0,0,0,0,0,0,0,0,0,0,0,0,0,0,0],"sum_hessian":[1.84E3,9.98E2,8.42E2,4.74E2,5.24E2,3.67E2,4.75E2,2.65E2,2.09E2,3.03E2,2.21E2,4.7E1,3.2E2,4.49E2,2.6E1,2.7E1,2.38E2,4.9E1,1.6E2,3.5E1,2.68E2,1.78E2,4.3E1,3.2E1,1.5E1,8.3E1,2.37E2,1.85E2,2.64E2,2.4E1,2E0,9E0,1.8E1,2.26E2,1.2E1,4.3E1,6E0,1.14E2,4.6E1,4E0,3.1E1,1E2,1.68E2,6E0,1.72E2,1.6E1,2.7E1,2E0,3E1,2E0,1.3E1,6.7E1,1.6E1,1E1,2.27E2,4.4E1,1.41E2,1.21E2,1.43E2,2.1E1,3E0,7E0,2E0,3E0,1.5E1,2.22E2,4E0,3E0,9E0,4.1E1,2E0,9.2E1,2.2E1,3.2E1,1.4E1,2E0,2E0,1.3E1,1.8E1,2.1E1,7.9E1,1.4E1,1.54E2,1.15E2,5.7E1,1.4E1,2E0,7E0,2E1,1E0,1E0,1.3E1,1.7E1,1.2E1,1E0,6.4E1,3E0,1.3E1,3E0,4E0,6E0,8E0,2.19E2,3.4E1,1E1,7E0,1.34E2,1.18E2,3E0,1.4E2,3E0,4E0,1.7E1],"tree_param":{"num_deleted":"0","num_feature":"4","num_nodes":"113","size_leaf_vector":"1"}},{"base_weights":[1.7185938E-2,2.8260517E-1,-2.6922262E-1,-6.546952E-2,6.580628E-1,-1.1851262E-1,-3.9878687E-1,-2.6728213E-1,1.8572755E-1,3.4277E0,5.634381E-1,6.620987E-1,-1.8393643E-1,-4.2092746E-1,-1.50071075E-2,-2.2914079E-1,-1.7002645E0,4.847928E-1,-5.133756E-1,5.820232E0,-1.1311363E0,8.466828E-1,-3.6468673E-2,1.8609163E0,-3.736992E-1,2.0247674E0,-2.0097923E-1,-3.6192623E-1,-5.6337726E-1,-1.13835685E-1,2.4407004E-1,-2.6598498E-1,1.7767975E0,4.043273E-1,-2.4328945E0,1.8243772E-1,1.8026086E0,3.091836E-1,-7.992294E-1,2.7701163E0,2.9108627E0,-6.2958074E-1,-5.179226E-1,7.430716E-1,4.1487517E0,-1.0648881E-1,7.3225754E-1,1.2772278E-2,5.55465E0,-1.0448602E0,2.6771572E-1,-1.483593E-1,1.0595047E0,-6.33869E-1,-1.3152587E-1,-3.0161482E-1,-4.9608776E-1,-6.4935756E-1,-3.9225328E-1,-1.1959862E-2,-1.9370814E-1,1.4214449E-1,-1.0546296E-1,1.8668921E0,-2.6714694E-1,-9.367493E-1,-2.1073762E-1,-9.48051E-2,2.1051976E-1,2.2012743E-1,1.3549865E0,4.2987725E-1,-3.4271058E-2,-2.84542E-1,7.591532E-2,-3.4891883E-1,1.3728002E0,-1.9102079E-1,-6.7940526E-2,2.7103135E-1,-1.6725464E-1,-2.568466E-1,1.4644156E0,3.5142973E-2,-1.2050914E-1,7.0475966E-1,-3.4711128E-1,2.0030234E0,1.5994078E-1,-3.624536E-1,3.925295E-2,4.314449E-1,-1.3180465E-1,-2.964622E-1,9.1813825E-2,1.2871398E-1,-6.46926E-2,-9.8113425E-2,1.2776199E-1,-1.5994518E-1,-3.4986082E-2,-1.3774495E-1,-2.1254738E-1,1.2193571E-1,-1.2571038E-1,2.6783643E-2,-1.12208135E-1],"categories":[],"categories_nodes":[],"categories_segments":[],"categories_sizes":[],"default_left":[0,0,0,0,0,0,0,0,0,0,0,0,0,0,0,0,0,0,0,0,0,0,0,0,0,0,0,0,0,0,0,0,0,0,0,0,0,0,0,0,0,0,0,0,0,0,0,0,0,0,0,0,0,0,0,0,0,0,0,0,0,0,0,0,0,0,0,0,0,0,0,0,0,0,0,0,0,0,0,0,0,0,0,0,0,0,0,0,0,0,0,0,0,0,0,0,0,0,0,0,0,0,0,0,0,0,0],"id":4,"left_children":[1,3,5,7,9,11,13,15,17,19,21,23,25,27,29,31,33,35,37,39,41,43,45,47,49,51,53,55,57,59,-1,61,63,-1,65,67,69,71,73,75,-1,-1,77,79,81,83,-1,85,87,89,91,-1,-1,93,95,97,99,101,103,105,-1,-1,-1,-1,-1,-1,-1,-1,-1,-1,-1,-1,-1,-1,-1,-1,-1,-1,-1,-1,-1,-1,-1,-1,-1,-1,-1,-1,-1,-1,-1,-1,-1,-1,-1,-1,-1,-1,-1,-1,-1,-1,-1,-1,-1,-1,-1],"loss_changes":[1.4002585E2,1.2498015E2,1.7253334E1,2.5244925E1,1.1862372E2,2.111179E1,4.038307E0,1.4695414E1,4.666407E1,1.701909E2,7.581537E1,4.0430862E1,1.4711078E1,3.5782166E0,2.3035557E0,2.0427528E1,1.8910456E1,6.1829067E1,1.6000933E1,9.154703E1,2.4726663E0,1.0058296E2,2.5238562E1,1.02327324E2,8.028594E0,1.3135631E1,1.1281445E1,2.4477348E0,1.6580162E0,1.3468647E0,0E0,1.7003288E1,6.483764E1,0E0,4.9664574E0,3.335391E1,8.081125E1,8.728359E0,8.092333E0,5.504223E1,0E0,0E0,2.8942585E-2,6.2031876E1,3.7180054E1,9.3556E0,0E0,3.278304E1,2.4613464E1,1.8862076E0,8.907573E0,0E0,0E0,1.762093E1,1.5511608E1,4.28327E0,1.3161106E0,6.3074875E-1,1.1542735E0,8.398073E-1,0E0,0E0,0E0,0E0,0E0,0E0,0E0,0E0,0E0,0E0,0E0,0E0,0E0,0E0,0E0,0E0,0E0,0E0,0E0,0E0,0E0,0E0,0E0,0E0,0E0,0E0,0E0,0E0,0E0,0E0,0E0,0E0,0E0,0E0,0E0,0E0,0E0,0E0,0E0,0E0,0E0,0E0,0E0,0E0,0E0,0E0,0E0],"parents":[2147483647,0,0,1,1,2,2,3,3,4,4,5,5,6,6,7,7,8,8,9,9,10,10,11,11,12,12,13,13,14,14,15,15,16,16,17,17,18,18,19,19,20,20,21,21,22,22,23,23,24,24,25,25,26,26,27,27,28,28,29,29,31,31,32,32,34,34,35,35,36,36,37,37,38,38,39,39,42,42,43,43,44,44,45,45,47,47,48,48,49,49,50,50,53,53,54,54,55,55,56,56,57,57,58,58,59,59],"right_children":[2,4,6,8,10,12,14,16,18,20,22,24,26,28,30,32,34,36,38,40,42,44,46,48,50,52,54,56,58,60,-1,62,64,-1,66,68,70,72,74,76,-1,-1,78,80,82,84,-1,86,88,90,92,-1,-1,94,96,98,100,102,104,106,-1,-1,-1,-1,-1,-1,-1,-1,-1,-1,-1,-1,-1,-1,-1,-1,-1,-1,-1,-1,-1,-1,-1,-1,-1,-1,-1,-1,-1,-1,-1,-1,-1,-1,-1,-1,-1,-1,-1,-1,-1,-1,-1,-1,-1,-1,-1],"split_conditions":[2.3234946E2,1.3000229E2,2.608625E2,2E-1,1.3439505E2,2.9370832E0,1.7507917E1,1.2559929E2,3.8E0,6.439167E0,1.3280833E1,4E-1,9.793059E0,3.0282114E2,3.0282114E2,1.21349495E2,5.8083326E-1,2.6E0,2.167786E1,5.4370837E0,1.3089354E1,1.2947502E1,2.1518333E1,2.0849998E0,2.1999998E0,8.970416E0,2.3740324E2,1.16725E1,3.418512E2,2.910776E2,2.4407004E-1,1.3089354E1,7.4079175E0,4.043273E-1,1.6016253E1,2.2104116E1,9.624874E1,3.0092806E1,1.59037485E1,3E-1,2.9108627E0,-6.2958074E-1,1.1376668E1,3.668822E1,8.827344E0,1.6734999E1,7.3225754E-1,1.035E0,2.8516667E0,2.8516667E0,3.4E0,-1.483593E-1,1.0595047E0,5.4E0,1.8129137E1,1.1376668E1,2.845856E2,1.6831684E1,1.0390226E1,2.901743E1,-1.9370814E-1,1.4214449E-1,-1.0546296E-1,1.8668921E0,-2.6714694E-1,-9.367493E-1,-2.1073762E-1,-9.48051E-2,2.1051976E-1,2.2012743E-1,1.3549865E0,4.2987725E-1,-3.4271058E-2,-2.84542E-1,7.591532E-2,-3.4891883E-1,1.3728002E0,-1.9102079E-1,-6.7940526E-2,2.7103135E-1,-1.6725464E-1,-2.568466E-1,1.4644156E0,3.5142973E-2,-1.2050914E-1,7.0475966E-1,-3.4711128E-1,2.0030234E0,1.5994078E-1,-3.624536E-1,3.925295E-2,4.314449E-1,-1.3180465E-1,-2.964622E-1,9.1813825E-2,1.2871398E-1,-6.46926E-2,-9.8113425E-2,1.2776199E-1,-1.5994518E-1,-3.4986082E-2,-1.3774495E-1,-2.1254738E-1,1.2193571E-1,-1.2571038E-1,2.6783643E-2,-1.12208135E-1],"split_indices":[3,3,3,1,3,0,0,3,1,0,0,1,2,3,3,3,0,1,2,0,2,0,0,0,1,0,3,0,3,3,0,2,0,0,0,2,3,3,0,1,0,0,0,2,2,0,0,0,0,0,1,0,0,1,2,0,3,2,2,2,0,0,0,0,0,0,0,0,0,0,0,0,0,0,0,0,0,0,0,0,0,0,0,0,0,0,0,0,0,0,0,0,0,0,0,0,0,0,0,0,0,0,0,0,0,0,0],"split_type":[0,0,0,0,0,0,0,0,0,0,0,0,0,0,0,0,0,0,0,0,0,0,0,0,0,0,0,0,0,0,0,0,0,0,0,0,0,0,0,0,0,0,0,0,0,0,0,0,0,0,0,0,0,0,0,0,0,0,0,0,0,0,0,0,0,0,0,0,0,0,0,0,0,0,0,0,0,0,0,0,0,0,0,0,0,0,0,0,0,0,0,0,0,0,0,0,0,0,0,0,0,0,0,0,0,0,0],"sum_hessian":[1.84E3,9.55E2,8.85E2,4.96E2,4.59E2,4.1E2,4.75E2,2.75E2,2.21E2,1.4E1,4.45E2,3.1E1,3.79E2,4.49E2,2.6E1,2.69E2,6E0,1.55E2,6.6E1,9E0,5E0,3.02E2,1.43E2,1.4E1,1.7E1,2E0,3.77E2,3.2E2,1.29E2,2.4E1,2E0,2.65E2,4E0,1E0,5E0,1.27E2,2.8E1,1.7E1,4.9E1,6E0,3E0,1E0,4E0,2.94E2,8E0,1.4E2,3E0,1E1,4E0,8E0,9E0,1E0,1E0,5.1E1,3.26E2,2.23E2,9.7E1,8.4E1,4.5E1,2.1E1,3E0,2.7E1,2.38E2,1E0,3E0,3E0,2E0,6.5E1,6.2E1,2.1E1,7E0,4E0,1.3E1,4.3E1,6E0,2E0,4E0,2E0,2E0,2.62E2,3.2E1,1E0,7E0,8E1,6E1,3E0,7E0,3E0,1E0,7E0,1E0,3E0,6E0,3.7E1,1.4E1,4.2E1,2.84E2,2.16E2,7E0,8.8E1,9E0,2.2E1,6.2E1,1E0,4.4E1,1.7E1,4E0],"tree_param":{"num_deleted":"0","num_feature":"4","num_nodes":"107","size_leaf_vector":"1"}},{"base_weights":[1.772742E-2,2.2770837E-1,-1.7312337E-1,-1.3483196E-1,5.064638E-1,-1.6730053E0,-1.4767997E-1,-2.3440045E-1,2.827558E-1,-7.373769E-2,8.3146256E-1,-2.4511552E0,-7.954272E-1,3.5985325E-2,-2.628469E-1,-5.929822E-1,-7.0002206E-2,7.3313475E0,-1.1833045E-1,-2.110675E-1,4.973069E-1,1.4207387E0,2.968664E-1,-9.545167E-1,-2.775473E-1,-2.5766954E-1,-4.3148663E-2,2.1413796E-1,-2.753856E-1,-1.9752409E-1,-3.5117185E-1,-2.7355036E-1,-1.3325619E0,3.387235E0,-2.5699535E-1,2.6811016E0,3.7715644E-1,1.2451866E0,-4.167608E-1,1.1077344E-2,-7.7482706E-1,2.375685E-1,1.399262E0,2.3159852E0,-1.3934018E-1,-1.224782E0,4.431512E-1,3.9803398E-1,-3.5075405E-1,9.00579E-1,-3.2259795E-1,1.8149383E-1,-2.6864493E-1,-3.682463E-1,3.9602646E-1,2.1668504E-1,-1.8390045E-1,-5.011954E-1,-1.18687406E-1,4.783653E-1,2.2908626E0,-1.11895956E-1,3.1020746E-1,-4.2117444E-1,1.3709371E0,-4.3399516E-1,5.7137553E-2,-3.234883E-2,1.2269552E0,-3.0860817E-1,3.3163775E-3,-2.6277116E-1,1.8415919E-1,-1.1433753E-1,8.460466E-1,-8.199189E-1,5.056075E-2,-5.8227986E-1,-1.06660046E-1,6.2952197E-1,1.0501639E-1,3.5665703E-1,6.459258E-2,-1.3898085E-1,3.8520658E-1,-6.8834625E-2,-2.512256E-1,4.459785E-1,-1.3353783E-2,-8.596851E-2,7.581666E-2,-7.145501E-2,-1.323064E-1,-6.3596726E-3,1.8298167E-1],"categories":[],"categories_nodes":[],"categories_segments":[],"categories_sizes":[],"default_left":[0,0,0,0,0,0,0,0,0,0,0,0,0,0,0,0,0,0,0,0,0,0,0,0,0,0,0,0,0,0,0,0,0,0,0,0,0,0,0,0,0,0,0,0,0,0,0,0,0,0,0,0,0,0,0,0,0,0,0,0,0,0,0,0,0,0,0,0,0,0,0,0,0,0,0,0,0,0,0,0,0,0,0,0,0,0,0,0,0,0,0,0,0,0,0],"id":5,"left_children":[1,3,5,7,9,11,13,15,17,19,21,23,25,27,29,31,33,35,37,39,41,43,45,-1,-1,-1,-1,47,49,51,53,55,57,59,61,-1,-1,63,65,67,69,71,-1,73,75,77,79,81,83,-1,85,87,89,91,93,-1,-1,-1,-1,-1,-1,-1,-1,-1,-1,-1,-1,-1,-1,-1,-1,-1,-1,-1,-1,-1,-1,-1,-1,-1,-1,-1,-1,-1,-1,-1,-1,-1,-1,-1,-1,-1,-1,-1,-1],"loss_changes":[7.381755E1,8.869799E1,3.657937E1,1.5949295E1,9.358944E1,8.976479E0,2.0104013E1,1.8174103E1,2.1007242E2,1.4142405E1,9.975609E1,5.975155E0,2.4868488E-1,2.0417027E1,3.300106E0,2.2551273E1,1.3857066E2,2.777658E1,2.9409897E1,1.8167843E1,3.6772568E1,2.1121768E2,3.7938564E1,0E0,0E0,0E0,0E0,2.4447865E1,2.1702213E1,9.159912E0,3.29706E0,2.3767305E1,8.525326E0,7.161141E1,3.0784304E1,0E0,0E0,1.20909355E2,3.717229E1,5.136535E1,8.19125E0,1.4783501E1,0E0,1.3161584E2,4.517914E1,8.647627E0,2.2996624E1,2.532113E1,1.1263226E1,0E0,6.1858873E0,1.599408E1,2.734665E0,2.185566E0,5.484281E-1,0E0,0E0,0E0,0E0,0E0,0E0,0E0,0E0,0E0,0E0,0E0,0E0,0E0,0E0,0E0,0E0,0E0,0E0,0E0,0E0,0E0,0E0,0E0,0E0,0E0,0E0,0E0,0E0,0E0,0E0,0E0,0E0,0E0,0E0,0E0,0E0,0E0,0E0,0E0,0E0],"parents":[2147483647,0,0,1,1,2,2,3,3,4,4,5,5,6,6,7,7,8,8,9,9,10,10,11,11,12,12,13,13,14,14,15,15,16,16,17,17,18,18,19,19,20,20,21,21,22,22,27,27,28,28,29,29,30,30,31,31,32,32,33,33,34,34,37,37,38,38,39,39,40,40,41,41,43,43,44,44,45,45,46,46,47,47,48,48,50,50,51,51,52,52,53,53,54,54],"right_children":[2,4,6,8,10,12,14,16,18,20,22,24,26,28,30,32,34,36,38,40,42,44,46,-1,-1,-1,-1,48,50,52,54,56,58,60,62,-1,-1,64,66,68,70,72,-1,74,76,78,80,82,84,-1,86,88,90,92,94,-1,-1,-1,-1,-1,-1,-1,-1,-1,-1,-1,-1,-1,-1,-1,-1,-1,-1,-1,-1,-1,-1,-1,-1,-1,-1,-1,-1,-1,-1,-1,-1,-1,-1,-1,-1,-1,-1,-1,-1],"split_conditions":[2.2217448E2,1E-1,2.245432E2,1.6920221E2,9.2531364E1,2.538702E1,2.5453233E2,1.624394E1,1.7236351E2,1.5012084E1,7.91625E0,3.968333E0,1.6505835E1,1.3751667E1,2.7865863E2,1.2559929E2,1.6831684E1,1.0549583E1,3.2516663E0,7.339167E0,3.514935E1,2.7059933E1,8.770417E0,-9.545167E-1,-2.775473E-1,-2.5766954E-1,-4.3148663E-2,3.668822E1,9.793059E0,3.7370834E0,7.8E0,5.7266674E0,1.6016253E1,1.0721618E2,1.8799582E1,2.6811016E0,3.7715644E-1,2.14125E0,9.195416E0,7.2641673E0,3.9E0,6E-1,1.399262E0,1.6912497E0,6E-1,2.5000002E0,9.746633E1,2.3234946E2,1.3064166E1,9.00579E-1,4.4E0,2.5827252E2,1.9282917E1,1.8129137E1,1.4193334E1,2.1668504E-1,-1.8390045E-1,-5.011954E-1,-1.18687406E-1,4.783653E-1,2.2908626E0,-1.11895956E-1,3.1020746E-1,-4.2117444E-1,1.3709371E0,-4.3399516E-1,5.7137553E-2,-3.234883E-2,1.2269552E0,-3.0860817E-1,3.3163775E-3,-2.6277116E-1,1.8415919E-1,-1.1433753E-1,8.460466E-1,-8.199189E-1,5.056075E-2,-5.8227986E-1,-1.06660046E-1,6.2952197E-1,1.0501639E-1,3.5665703E-1,6.459258E-2,-1.3898085E-1,3.8520658E-1,-6.8834625E-2,-2.512256E-1,4.459785E-1,-1.3353783E-2,-8.596851E-2,7.581666E-2,-7.145501E-2,-1.323064E-1,-6.3596726E-3,1.8298167E-1],"split_indices":[3,1,3,3,3,2,3,2,3,0,0,0,0,0,3,3,2,0,0,0,2,2,0,0,0,0,0,2,2,0,1,0,0,3,0,0,0,0,0,0,1,1,0,0,1,1,3,3,0,0,1,3,0,2,0,0,0,0,0,0,0,0,0,0,0,0,0,0,0,0,0,0,0,0,0,0,0,0,0,0,0,0,0,0,0,0,0,0,0,0,0,0,0,0,0],"split_type":[0,0,0,0,0,0,0,0,0,0,0,0,0,0,0,0,0,0,0,0,0,0,0,0,0,0,0,0,0,0,0,0,0,0,0,0,0,0,0,0,0,0,0,0,0,0,0,0,0,0,0,0,0,0,0,0,0,0,0,0,0,0,0,0,0,0,0,0,0,0,0,0,0,0,0,0,0,0,0,0,0,0,0,0,0,0,0,0,0,0,0,0,0,0,0],"sum_hessian":[1.84E3,8.76E2,9.64E2,3.81E2,4.95E2,1.5E1,9.49E2,3.08E2,7.3E1,1.78E2,3.17E2,7E0,8E0,3.66E2,5.83E2,9.6E1,2.12E2,3E0,7E1,1.44E2,3.4E1,1.5E2,1.67E2,4E0,3E0,7E0,1E0,2.33E2,1.33E2,3.37E2,2.46E2,6.8E1,2.8E1,1E1,2.02E2,2E0,1E0,1.2E1,5.8E1,1.04E2,4E1,3.3E1,1E0,9.5E1,5.5E1,1.4E1,1.53E2,1.76E2,5.7E1,1E0,1.32E2,5.3E1,2.84E2,2.41E2,5E0,1.7E1,5.1E1,2E1,8E0,8E0,2E0,1.86E2,1.6E1,7E0,5E0,2.1E1,3.7E1,1.02E2,2E0,3E1,1E1,8E0,2.5E1,1.5E1,8E1,5E0,5E1,7E0,7E0,7E0,1.46E2,3.2E1,1.44E2,5.4E1,3E0,1.13E2,1.9E1,7E0,4.6E1,2.75E2,9E0,8.8E1,1.53E2,2E0,3E0],"tree_param":{"num_deleted":"0","num_feature":"4","num_nodes":"95","size_leaf_vector":"1"}},{"base_weights":[1.6939329E-2,1.6877958E-1,-1.2107191E-1,-5.769224E-2,4.3529406E-1,-1.1234868E0,-9.649438E-2,-1.0627732E-2,-7.811455E-1,-3.0849544E-2,8.72452E-1,-1.9527764E0,-6.38624E-1,1.5455171E0,-1.1042557E-1,-3.0636707E-1,1.21058255E-1,3.4398574E-1,-1.1547775E0,1.9534853E-1,-2.1483448E0,3.1619365E0,5.134575E-1,-2.4279802E0,-1.054331E-1,3.980367E-1,-8.581041E-1,-3.3748895E-1,2.6231709E0,-6.4012474E-1,-9.278345E-2,-3.8097855E-1,4.403572E-1,5.2673984E-1,-7.750911E-2,8.1546134E-1,-3.8350323E-1,-1.6568651E0,-2.4544364E-1,-5.614185E-2,1.4894246E0,-2.6520443E-1,-2.8019516E0,1.4669877E0,5.0048013E0,1.4392105E0,-1.2560901E-1,-1.9164442E-1,-7.9741514E-1,-1.3159813E0,-2.9296392E-1,1.4637501E0,2.7538127E-1,-1.4657764E0,1.8136395E0,1.3066847E0,-1.274285E-1,-3.999535E-3,-1.4871879E-1,-1.0123439E-2,3.6170083E-1,7.90201E-2,2.7387433E0,-3.5852003E-1,2.2179348E-2,-1.5536234E-1,6.3408606E-2,-5.805347E-1,-1.4323808E-1,-2.1661739E-1,8.4077805E-2,-5.530996E-1,4.2427287E-2,1.475441E-1,9.2315066E-1,-2.0627682E-1,3.5365608E-2,-8.838759E-1,-1.3890532E-1,5.7906675E-1,-8.222302E-1,-5.4532792E-2,1.7893021E0,7.100658E-1,1.0136692E-1,-4.042598E-1,6.0793526E-2,-2.7586842E-2,-4.4331166E-1,3.6832872E-1,-2.0568156E-1,-9.310527E-2,3.0488667E-1,-6.64293E-1,-8.137558E-2,1.1206942E0,-2.6008302E-2,2.0170815E0,1.2864378E-1,-6.041331E-3,-5.545526E-2],"categories":[],"categories_nodes":[],"categories_segments":[],"categories_sizes":[],"default_left":[0,0,0,0,0,0,0,0,0,0,0,0,0,0,0,0,0,0,0,0,0,0,0,0,0,0,0,0,0,0,0,0,0,0,0,0,0,0,0,0,0,0,0,0,0,0,0,0,0,0,0,0,0,0,0,0,0,0,0,0,0,0,0,0,0,0,0,0,0,0,0,0,0,0,0,0,0,0,0,0,0,0,0,0,0,0,0,0,0,0,0,0,0,0,0,0,0,0,0,0,0],"id":6,"left_children":[1,3,5,7,9,11,13,15,17,19,21,23,25,27,29,31,33,35,37,39,41,43,45,47,-1,-1,49,-1,51,53,55,57,59,61,63,-1,65,67,69,71,73,75,77,79,81,83,85,-1,-1,87,89,-1,91,93,95,97,99,-1,-1,-1,-1,-1,-1,-1,-1,-1,-1,-1,-1,-1,-1,-1,-1,-1,-1,-1,-1,-1,-1,-1,-1,-1,-1,-1,-1,-1,-1,-1,-1,-1,-1,-1,-1,-1,-1,-1,-1,-1,-1,-1,-1],"loss_changes":[3.8599808E1,5.29591E1,2.3666183E1,1.6164959E1,8.214962E1,8.001019E0,2.174196E1,1.7445381E1,1.2588394E1,9.429845E1,1.6933424E2,5.234375E0,8.040428E0,2.5973799E1,8.687541E0,7.856326E0,2.5012917E1,1.4860182E1,9.63777E0,5.801331E1,2.264273E1,8.011774E1,1.0726358E2,7.71801E-1,0E0,0E0,3.4959373E0,0E0,3.043599E1,6.343703E1,4.414209E1,5.3090477E0,4.757553E0,2.2866136E2,3.546019E1,0E0,6.6898835E-1,3.6704369E0,2.4573815E0,5.3233852E1,4.442118E1,1.0519247E0,3.3609924E0,3.647715E1,6.5781555E1,7.480371E1,4.3592026E1,0E0,0E0,1.4477501E0,5.618559E0,0E0,2.0513E0,1.9964622E1,2.9543505E1,1.0173483E2,5.4548216E0,0E0,0E0,0E0,0E0,0E0,0E0,0E0,0E0,0E0,0E0,0E0,0E0,0E0,0E0,0E0,0E0,0E0,0E0,0E0,0E0,0E0,0E0,0E0,0E0,0E0,0E0,0E0,0E0,0E0,0E0,0E0,0E0,0E0,0E0,0E0,0E0,0E0,0E0,0E0,0E0,0E0,0E0,0E0,0E0],"parents":[2147483647,0,0,1,1,2,2,3,3,4,4,5,5,6,6,7,7,8,8,9,9,10,10,11,11,12,12,13,13,14,14,15,15,16,16,17,17,18,18,19,19,20,20,21,21,22,22,23,23,26,26,28,28,29,29,30,30,31,31,32,32,33,33,34,34,36,36,37,37,38,38,39,39,40,40,41,41,42,42,43,43,44,44,45,45,46,46,49,49,50,50,52,52,53,53,54,54,55,55,56,56],"right_children":[2,4,6,8,10,12,14,16,18,20,22,24,26,28,30,32,34,36,38,40,42,44,46,48,-1,-1,50,-1,52,54,56,58,60,62,64,-1,66,68,70,72,74,76,78,80,82,84,86,-1,-1,88,90,-1,92,94,96,98,100,-1,-1,-1,-1,-1,-1,-1,-1,-1,-1,-1,-1,-1,-1,-1,-1,-1,-1,-1,-1,-1,-1,-1,-1,-1,-1,-1,-1,-1,-1,-1,-1,-1,-1,-1,-1,-1,-1,-1,-1,-1,-1,-1,-1],"split_conditions":[2.2217448E2,1.21349495E2,2.254197E2,1.1534009E2,2.1313093E1,3.968333E0,2.2630342E2,4.3488514E1,1.4007655E1,2.0592503E1,2.238378E1,3.5000002E0,4.7829165E0,5.1495833E0,2.2922856E2,1.5201665E1,5.2183337E0,7.1495833E0,1.487875E1,2.0000002E0,2.8516667E0,1.941318E2,1.8366771E2,9.5166665E-1,-1.054331E-1,3.980367E-1,1.3885002E1,-3.3748895E-1,1.1014167E1,4.3999996E0,2.3234946E2,-5.275E-1,2.2961115E1,5.1829166E0,6.974583E0,8.1546134E-1,1.3324863E1,2.19718E1,1.1900832E2,1.3261954E2,1.8626305E1,1E-1,2.1437294E2,1.7948007E2,1.5870832E0,1.7E0,1.9800679E2,-1.9164442E-1,-7.9741514E-1,2.2388551E2,1.4035003E1,1.4637501E0,1.6345415E1,1.1376668E1,5.6E0,3.14125E0,2.5489882E2,-3.999535E-3,-1.4871879E-1,-1.0123439E-2,3.6170083E-1,7.90201E-2,2.7387433E0,-3.5852003E-1,2.2179348E-2,-1.5536234E-1,6.3408606E-2,-5.805347E-1,-1.4323808E-1,-2.1661739E-1,8.4077805E-2,-5.530996E-1,4.2427287E-2,1.475441E-1,9.2315066E-1,-2.0627682E-1,3.5365608E-2,-8.838759E-1,-1.3890532E-1,5.7906675E-1,-8.222302E-1,-5.4532792E-2,1.7893021E0,7.100658E-1,1.0136692E-1,-4.042598E-1,6.0793526E-2,-2.7586842E-2,-4.4331166E-1,3.6832872E-1,-2.0568156E-1,-9.310527E-2,3.0488667E-1,-6.64293E-1,-8.137558E-2,1.1206942E0,-2.6008302E-2,2.0170815E0,1.2864378E-1,-6.041331E-3,-5.545526E-2],"split_indices":[3,3,3,3,2,0,3,3,2,2,2,1,0,0,3,0,0,0,0,1,0,3,3,0,0,0,0,0,0,1,3,0,2,0,0,0,2,2,3,3,2,1,3,3,0,1,3,0,0,3,0,0,0,0,1,0,3,0,0,0,0,0,0,0,0,0,0,0,0,0,0,0,0,0,0,0,0,0,0,0,0,0,0,0,0,0,0,0,0,0,0,0,0,0,0,0,0,0,0,0,0],"split_type":[0,0,0,0,0,0,0,0,0,0,0,0,0,0,0,0,0,0,0,0,0,0,0,0,0,0,0,0,0,0,0,0,0,0,0,0,0,0,0,0,0,0,0,0,0,0,0,0,0,0,0,0,0,0,0,0,0,0,0,0,0,0,0,0,0,0,0,0,0,0,0,0,0,0,0,0,0,0,0,0,0,0,0,0,0,0,0,0,0,0,0,0,0,0,0,0,0,0,0,0,0],"sum_hessian":[1.84E3,8.76E2,9.64E2,4.74E2,4.02E2,2.2E1,9.42E2,4.46E2,2.8E1,1.95E2,2.07E2,7E0,1.5E1,7E0,9.35E2,1.37E2,3.09E2,7E0,2.1E1,1.77E2,1.8E1,2.7E1,1.8E2,5E0,2E0,1E0,1.4E1,2E0,5E0,2.9E1,9.06E2,1.25E2,1.2E1,1.01E2,2.08E2,1E0,6E0,1.3E1,8E0,1.49E2,2.8E1,5E0,1.3E1,1.5E1,1.2E1,7.3E1,1.07E2,1E0,4E0,7E0,7E0,2E0,3E0,2.2E1,7E0,2.1E1,8.85E2,3E1,9.5E1,8E0,4E0,9.9E1,2E0,2.4E1,1.84E2,5E0,1E0,1E1,3E0,4E0,4E0,1.4E1,1.35E2,1.8E1,1E1,2E0,3E0,1.2E1,1E0,1.4E1,1E0,2E0,1E1,3.9E1,3.4E1,2.2E1,8.5E1,1E0,6E0,1E0,6E0,2E0,1E0,1.3E1,9E0,3E0,4E0,2E0,1.9E1,3.09E2,5.76E2],"tree_param":{"num_deleted":"0","num_feature":"4","num_nodes":"101","size_leaf_vector":"1"}},{"base_weights":[1.5464241E-2,7.7459468E-3,1.4279093E0,1.2803556E-1,-7.5188965E-2,1.9944832E0,7.94276E-2,8.9909755E-2,3.6434343E0,-8.161522E-2,1.0336307E0,1.1198452E-1,6.60741E-1,4.0392542E-1,-1.3410988E-1,-9.656139E-2,4.8441204E-1,2.539607E0,6.252339E-1,-5.29862E-1,-4.6333797E-2,1.8344307E-2,1.6342214E-1,-6.160231E-3,-8.994156E-1,-1.7586559E-1,9.0168196E-1,-6.028847E-1,1.5541269E0,-1.2307655E0,-9.872264E-2,1.3561735E0,-7.906889E-2,-6.9117345E-2,7.1939655E-2,-4.486981E-1,-6.5848395E-2,-2.837385E-1,5.6336008E-2,6.822661E-1,1.41403135E-2,7.1978915E-1,5.7274334E-2,-2.8887061E-2,-4.9167755E-1,-1.0007162E-1,2.29275E-1,1.1007907E0,-3.6634624E-2,-3.8142577E-2,2.8661655E-2],"categories":[],"categories_nodes":[],"categories_segments":[],"categories_sizes":[],"default_left":[0,0,0,0,0,0,0,0,0,0,0,0,0,0,0,0,0,0,0,0,0,0,0,0,0,0,0,0,0,0,0,0,0,0,0,0,0,0,0,0,0,0,0,0,0,0,0,0,0,0,0],"id":7,"left_children":[1,3,5,7,9,11,13,15,17,19,-1,-1,-1,21,-1,23,25,-1,27,29,31,-1,-1,33,35,37,39,-1,41,43,45,47,49,-1,-1,-1,-1,-1,-1,-1,-1,-1,-1,-1,-1,-1,-1,-1,-1,-1,-1],"loss_changes":[2.0058905E1,1.8286043E1,7.4817295E0,9.992493E1,2.4828705E1,1.5381756E0,8.639091E-1,5.455717E1,1.11135414E2,1.7118673E1,0E0,0E0,0E0,1.1149511E-1,0E0,3.6574245E1,6.573091E1,0E0,1.7808159E1,2.375127E1,4.6293907E1,0E0,0E0,2.5094088E1,2.034708E1,2.6216358E1,1.7113614E2,0E0,5.3026724E0,1.3733597E1,1.0388363E1,7.9095955E1,8.271769E0,0E0,0E0,0E0,0E0,0E0,0E0,0E0,0E0,0E0,0E0,0E0,0E0,0E0,0E0,0E0,0E0,0E0,0E0],"parents":[2147483647,0,0,1,1,2,2,3,3,4,4,5,5,6,6,7,7,8,8,9,9,13,13,15,15,16,16,18,18,19,19,20,20,23,23,24,24,25,25,26,26,28,28,29,29,30,30,31,31,32,32],"right_children":[2,4,6,8,10,12,14,16,18,20,-1,-1,-1,22,-1,24,26,-1,28,30,32,-1,-1,34,36,38,40,-1,42,44,46,48,50,-1,-1,-1,-1,-1,-1,-1,-1,-1,-1,-1,-1,-1,-1,-1,-1,-1,-1],"split_conditions":[2.1518333E1,6.439167E0,1.872346E1,6.3933334E0,5.221117E1,2.4085613E1,2.3300789E1,4.3683333E0,2.0396248E2,7.2641673E0,1.0336307E0,1.1198452E-1,6.60741E-1,1E-1,-1.3410988E-1,3.9224997E0,2E-1,2.539607E0,1.645007E1,2.1166653E1,7.4912505E0,1.8344307E-2,1.6342214E-1,1.8954166E0,2.5944988E1,1.8899143E1,2.6459387E1,-6.028847E-1,1E-1,9.076677E1,2.6715753E2,2.6405453E1,2.3000002E0,-6.9117345E-2,7.1939655E-2,-4.486981E-1,-6.5848395E-2,-2.837385E-1,5.6336008E-2,6.822661E-1,1.41403135E-2,7.1978915E-1,5.7274334E-2,-2.8887061E-2,-4.9167755E-1,-1.0007162E-1,2.29275E-1,1.1007907E0,-3.6634624E-2,-3.8142577E-2,2.8661655E-2],"split_indices":[0,0,2,0,2,3,2,0,3,0,0,0,0,1,0,0,1,0,2,2,0,0,0,0,2,2,2,0,1,3,3,2,1,0,0,0,0,0,0,0,0,0,0,0,0,0,0,0,0,0,0],"split_type":[0,0,0,0,0,0,0,0,0,0,0,0,0,0,0,0,0,0,0,0,0,0,0,0,0,0,0,0,0,0,0,0,0,0,0,0,0,0,0,0,0,0,0,0,0,0,0,0,0,0,0],"sum_hessian":[1.84E3,1.831E3,9E0,7.47E2,1.084E3,6E0,3E0,7.4E2,7E0,1.083E3,1E0,1E0,5E0,2E0,1E0,5.03E2,2.37E2,2E0,5E0,7.8E1,1.005E3,1E0,1E0,4.53E2,5E1,9.2E1,1.45E2,1E0,4E0,2.9E1,4.9E1,2.2E1,9.83E2,2.37E2,2.16E2,2.6E1,2.4E1,2.9E1,6.3E1,5.5E1,9E1,2E0,2E0,8E0,2.1E1,3.9E1,1E1,8E0,1.4E1,7.71E2,2.12E2],"tree_param":{"num_deleted":"0","num_feature":"4","num_nodes":"51","size_leaf_vector":"1"}},{"base_weights":[1.364323E-2,1.324355E-1,-6.2425587E-2,1.0738081E-1,2.3457487E0,-4.260313E-2,-6.2728775E-1,-2.722719E-2,3.7558004E-1,4.21611E0,-5.7864034E-1,-6.5664195E-2,2.5218368E-1,-1.2470603E0,-2.5512362E-1,-1.17666595E-1,2.2972359E-1,1.4788626E0,1.8445027E-1,2.088834E0,6.4070344E-2,-9.92651E-2,-3.025149E-1,-4.2150941E-1,-3.9473787E-2,1.1542008E0,1.5676716E-1,-7.531318E-2,-1.3043659E0,8.7858605E-1,-5.0980544E-1,-1.511771E-5,-5.521925E-1,1.6753995E-1,1.1817466E0,5.323482E-1,3.2486532E0,-1.891627E0,3.3565775E-1,-2.6116166E-1,2.899933E-1,8.7485075E-2,-1.3215438E-1,-1.6436405E-1,-1.5165691E0,7.487036E-1,-7.993936E-2,-8.1437796E-1,4.009188E-1,-4.2863008E-1,-2.0018156E-1,-7.703275E-1,9.989964E-3,9.048971E-2,-8.857333E-2,-1.09817185E-1,-4.2352685E-1,6.3785E-1,2.5151048E-2,-7.8323627E-1,3.8745445E-1,1.814207E0,1.1570141E-1,-7.688433E-1,1.0250648E0,3.2647538E-1,2.0488879E-2,-1.910825E-1,1.8492475E-1,5.6184274E-1,-5.8652544E-1,7.349471E-1,-1.617345E-1,-1.4637059E-1,-1.594927E-2,-2.920526E-1,-8.087662E-2,3.4574974E-1,-6.935248E-4,-1.0541613E-1,-2.6420763E-1,-6.693223E-2,4.9116973E-2],"categories":[],"categories_nodes":[],"categories_segments":[],"categories_sizes":[],"default_left":[0,0,0,0,0,0,0,0,0,0,0,0,0,0,0,0,0,0,0,0,0,0,0,0,0,0,0,0,0,0,0,0,0,0,0,0,0,0,0,0,0,0,0,0,0,0,0,0,0,0,0,0,0,0,0,0,0,0,0,0,0,0,0,0,0,0,0,0,0,0,0,0,0,0,0,0,0,0,0,0,0,0,0],"id":8,"left_children":[1,3,5,7,9,11,13,15,17,19,21,23,25,27,29,31,33,35,37,-1,39,41,-1,43,45,-1,47,-1,49,-1,51,53,55,57,-1,59,61,63,65,-1,-1,-1,-1,67,69,71,73,75,77,-1,-1,79,81,-1,-1,-1,-1,-1,-1,-1,-1,-1,-1,-1,-1,-1,-1,-1,-1,-1,-1,-1,-1,-1,-1,-1,-1,-1,-1,-1,-1,-1,-1],"loss_changes":[1.6644257E1,3.9619446E1,1.2547457E1,2.571468E1,4.6196926E1,7.399294E0,8.4468155E0,1.1065306E1,4.991432E1,5.6575302E1,7.2393477E-1,9.377652E0,2.6496777E1,4.716282E-1,2.1764069E1,1.7995152E1,2.7942612E1,5.6900208E1,6.46743E1,0E0,3.3721628E0,5.286263E-1,0E0,1.9180408E1,3.0040255E1,0E0,1.882082E1,0E0,7.694054E-2,0E0,3.2577314E0,2.4846394E1,1.1482847E1,1.998676E1,0E0,6.0639797E1,9.3819336E1,5.8638638E1,3.8357655E1,0E0,0E0,0E0,0E0,2.1424427E1,2.2983335E1,1.020945E2,9.750369E0,1.1246347E0,1.9095451E1,0E0,0E0,4.3031502E-1,3.5904127E-1,0E0,0E0,0E0,0E0,0E0,0E0,0E0,0E0,0E0,0E0,0E0,0E0,0E0,0E0,0E0,0E0,0E0,0E0,0E0,0E0,0E0,0E0,0E0,0E0,0E0,0E0,0E0,0E0,0E0,0E0],"parents":[2147483647,0,0,1,1,2,2,3,3,4,4,5,5,6,6,7,7,8,8,9,9,10,10,11,11,12,12,13,13,14,14,15,15,16,16,17,17,18,18,20,20,21,21,23,23,24,24,26,26,28,28,30,30,31,31,32,32,33,33,35,35,36,36,37,37,38,38,43,43,44,44,45,45,46,46,47,47,48,48,51,51,52,52],"right_children":[2,4,6,8,10,12,14,16,18,20,22,24,26,28,30,32,34,36,38,-1,40,42,-1,44,46,-1,48,-1,50,-1,52,54,56,58,-1,60,62,64,66,-1,-1,-1,-1,68,70,72,74,76,78,-1,-1,80,82,-1,-1,-1,-1,-1,-1,-1,-1,-1,-1,-1,-1,-1,-1,-1,-1,-1,-1,-1,-1,-1,-1,-1,-1,-1,-1,-1,-1,-1,-1],"split_conditions":[1.9800679E2,1.9620699E2,9.3E0,1.21349495E2,2.2218153E1,5.4E0,6.0475E0,1.487875E1,3.14125E0,1.3064166E1,1.0000001E0,2.124466E2,2.0396248E2,9.500002E0,6.6245837E0,2.7595825E1,3.514935E1,1.7659471E2,4.0204167E0,2.088834E0,1.6899586E1,1.2641252E1,-3.025149E-1,2.1079927E2,2.2070627E2,1.1542008E0,3.805833E0,-7.531318E-2,2.3840132E2,8.7858605E-1,2.501184E2,5.2183337E0,8.422668E1,1.49662485E1,1.1817466E0,1.7651016E1,1.8566357E2,5.6000004E0,7.4912505E0,-2.6116166E-1,2.899933E-1,8.7485075E-2,-1.3215438E-1,2.1313093E1,1.0990322E1,6.2745843E0,2.2922856E2,2.5239929E2,6.4891677E0,-4.2863008E-1,-2.0018156E-1,1.2712086E1,1.2800001E1,9.048971E-2,-8.857333E-2,-1.09817185E-1,-4.2352685E-1,6.3785E-1,2.5151048E-2,-7.8323627E-1,3.8745445E-1,1.814207E0,1.1570141E-1,-7.688433E-1,1.0250648E0,3.2647538E-1,2.0488879E-2,-1.910825E-1,1.8492475E-1,5.6184274E-1,-5.8652544E-1,7.349471E-1,-1.617345E-1,-1.4637059E-1,-1.594927E-2,-2.920526E-1,-8.087662E-2,3.4574974E-1,-6.935248E-4,-1.0541613E-1,-2.6420763E-1,-6.693223E-2,4.9116973E-2],"split_indices":[3,3,1,3,2,1,0,0,0,0,1,3,3,1,0,2,2,3,0,0,0,0,0,3,3,0,0,0,3,0,3,0,3,0,0,2,3,1,0,0,0,0,0,2,2,0,3,3,0,0,0,0,1,0,0,0,0,0,0,0,0,0,0,0,0,0,0,0,0,0,0,0,0,0,0,0,0,0,0,0,0,0,0],"split_type":[0,0,0,0,0,0,0,0,0,0,0,0,0,0,0,0,0,0,0,0,0,0,0,0,0,0,0,0,0,0,0,0,0,0,0,0,0,0,0,0,0,0,0,0,0,0,0,0,0,0,0,0,0,0,0,0,0,0,0,0,0,0,0,0,0,0,0,0,0,0,0,0,0,0,0,0,0,0,0,0,0,0,0],"sum_hessian":[1.84E3,7.18E2,1.122E3,7.11E2,7E0,1.085E3,3.7E1,4.74E2,2.37E2,4E0,3E0,1.007E3,7.8E1,1.3E1,2.4E1,3.51E2,1.23E2,3.4E1,2.03E2,2E0,2E0,2E0,1E0,6.8E1,9.39E2,1E0,7.7E1,1E0,1.2E1,1E0,2.3E1,2.77E2,7.4E1,1.22E2,1E0,2.3E1,1.1E1,1.3E1,1.9E2,1E0,1E0,1E0,1E0,5.6E1,1.2E1,4.5E1,8.94E2,1.5E1,6.2E1,9E0,3E0,1.5E1,8E0,1.37E2,1.4E2,6.2E1,1.2E1,4E0,1.18E2,4E0,1.9E1,5E0,6E0,1.2E1,1E0,4.9E1,1.41E2,3.5E1,2.1E1,1E0,1.1E1,1.9E1,2.6E1,5.4E1,8.4E2,1.1E1,4E0,2.1E1,4.1E1,4E0,1.1E1,3E0,5E0],"tree_param":{"num_deleted":"0","num_feature":"4","num_nodes":"83","size_leaf_vector":"1"}},{"base_weights":[1.3088827E-2,3.5991261E-3,7.313883E-1,2.3660684E-2,-3.0811724E-1,4.6719187E-1,1.054544E0,8.241218E-2,-9.7031966E-2,-3.937724E-1,5.878114E-1,1.858993E-1,3.5828152E-1,1.5899734E0,2.011199E-1,-3.7112257E-1,1.2548646E-1,-3.1331502E-2,-2.0473212E-1,-1.0143075E0,-2.561128E-1,9.9940024E-2,7.467981E-1,-9.091416E-2,5.91621E-1,9.1414124E-2,5.3582484E-1,-2.354358E-1,1.711907E-1,-5.499936E-1,2.880561E-1,3.4345822E0,1.0956386E-1,3.254879E-2,-2.0497005E-1,-2.612591E-1,2.2854018E-1,-2.8045204E-1,-1.1423819E0,-7.041656E-2,-4.0080097E-1,8.4889287E-1,-3.145423E-1,2.2323003E-1,-4.6086586E-1,3.1686702E-1,2.1141452E-1,1.181996E-2,-1.17766075E-1,-3.4682848E-2,-3.2783198E-1,4.9578428E-1,-1.376736E-1,1.9500473E0,-2.3275603E-1,-2.1711038E-2,7.89354E-2,6.7201704E-2,-2.9976526E-2,2.9210115E-2,-7.5120576E-2,-1.4363807E-1,-6.033216E-2,2.4710159E-1,-8.241968E-4,-6.5625613E-3,-1.0780578E-1,-4.3218422E-1,-2.104056E-1,3.2706667E-2,-1.2716325E-1,9.797611E-2,-1.6751485E-1,-1.3913892E-1,1.111851E0,-6.68269E-2,3.0107632E-1,-5.9285928E-2,-1.8759063E-1,1.5246678E-2,7.440136E-2],"categories":[],"categories_nodes":[],"categories_segments":[],"categories_sizes":[],"default_left":[0,0,0,0,0,0,0,0,0,0,0,0,0,0,0,0,0,0,0,0,0,0,0,0,0,0,0,0,0,0,0,0,0,0,0,0,0,0,0,0,0,0,0,0,0,0,0,0,0,0,0,0,0,0,0,0,0,0,0,0,0,0,0,0,0,0,0,0,0,0,0,0,0,0,0,0,0,0,0,0,0],"id":9,"left_children":[1,3,5,7,9,11,13,15,17,19,21,23,-1,25,27,29,31,33,35,37,39,41,-1,43,45,-1,-1,47,-1,49,51,53,55,57,59,61,63,65,67,69,71,73,-1,75,77,-1,79,-1,-1,-1,-1,-1,-1,-1,-1,-1,-1,-1,-1,-1,-1,-1,-1,-1,-1,-1,-1,-1,-1,-1,-1,-1,-1,-1,-1,-1,-1,-1,-1,-1,-1],"loss_changes":[1.2546446E1,1.1376183E1,1.5563631E0,1.2126302E1,8.672963E0,2.845818E0,4.249709E0,2.2512606E1,3.9561172E0,8.367907E0,9.028168E0,1.4014975E0,0E0,9.680643E-1,9.4091904E-1,1.19492235E1,5.5000267E1,3.8778076E0,5.2519236E0,1.3714008E0,2.2286935E0,8.631015E0,0E0,1.0326245E0,6.599232E-1,0E0,0E0,1.4501123E-1,0E0,1.8499876E1,2.3182592E1,6.958021E1,2.9268785E1,6.515156E0,1.3155401E0,2.3637133E0,3.4434268E0,7.37465E-2,9.6256065E-1,2.4563468E0,5.569647E0,2.4223206E1,0E0,1.9636999E0,4.957676E-2,0E0,1.0900125E-2,0E0,0E0,0E0,0E0,0E0,0E0,0E0,0E0,0E0,0E0,0E0,0E0,0E0,0E0,0E0,0E0,0E0,0E0,0E0,0E0,0E0,0E0,0E0,0E0,0E0,0E0,0E0,0E0,0E0,0E0,0E0,0E0,0E0,0E0],"parents":[2147483647,0,0,1,1,2,2,3,3,4,4,5,5,6,6,7,7,8,8,9,9,10,10,11,11,13,13,14,14,15,15,16,16,17,17,18,18,19,19,20,20,21,21,23,23,24,24,27,27,29,29,30,30,31,31,32,32,33,33,34,34,35,35,36,36,37,37,38,38,39,39,40,40,41,41,43,43,44,44,46,46],"right_children":[2,4,6,8,10,12,14,16,18,20,22,24,-1,26,28,30,32,34,36,38,40,42,-1,44,46,-1,-1,48,-1,50,52,54,56,58,60,62,64,66,68,70,72,74,-1,76,78,-1,80,-1,-1,-1,-1,-1,-1,-1,-1,-1,-1,-1,-1,-1,-1,-1,-1,-1,-1,-1,-1,-1,-1,-1,-1,-1,-1,-1,-1,-1,-1,-1,-1,-1,-1],"split_conditions":[2.0564167E1,4.0199284E1,2.1518333E1,2.5298706E2,5.221117E1,2.0532627E1,1.7373497E1,1.3100001E0,5E-1,2.1871364E2,6.0891666E0,1.5316019E2,3.5828152E-1,2.4085613E1,1E-1,2.6867676E1,1.485E0,3.005181E2,1.6655834E1,5.1666677E-2,1.9000001E0,9.099999E0,7.467981E-1,1.034059E2,1.7236351E2,9.1414124E-2,5.3582484E-1,1.8806337E1,1.711907E-1,4.550518E1,2.8357855E1,1.8899143E1,2.1313093E1,6.974583E0,-3.1775005E0,2.608625E2,1.7208603E1,-3.9358332E0,6E0,8.312084E0,2.3463249E2,5.6000004E0,-3.145423E-1,1.6363178E1,1.9296135E1,3.1686702E-1,1.4386494E1,1.181996E-2,-1.17766075E-1,-3.4682848E-2,-3.2783198E-1,4.9578428E-1,-1.376736E-1,1.9500473E0,-2.3275603E-1,-2.1711038E-2,7.89354E-2,6.7201704E-2,-2.9976526E-2,2.9210115E-2,-7.5120576E-2,-1.4363807E-1,-6.033216E-2,2.4710159E-1,-8.241968E-4,-6.5625613E-3,-1.0780578E-1,-4.3218422E-1,-2.104056E-1,3.2706667E-2,-1.2716325E-1,9.797611E-2,-1.6751485E-1,-1.3913892E-1,1.111851E0,-6.68269E-2,3.0107632E-1,-5.9285928E-2,-1.8759063E-1,1.5246678E-2,7.440136E-2],"split_indices":[0,2,0,3,2,2,2,0,1,3,0,3,0,3,1,2,0,3,0,0,1,1,0,3,3,0,0,2,0,3,2,2,2,0,0,3,2,0,1,0,3,1,0,2,2,0,2,0,0,0,0,0,0,0,0,0,0,0,0,0,0,0,0,0,0,0,0,0,0,0,0,0,0,0,0,0,0,0,0,0,0],"split_type":[0,0,0,0,0,0,0,0,0,0,0,0,0,0,0,0,0,0,0,0,0,0,0,0,0,0,0,0,0,0,0,0,0,0,0,0,0,0,0,0,0,0,0,0,0,0,0,0,0,0,0,0,0,0,0,0,0,0,0,0,0,0,0,0,0,0,0,0,0,0,0,0,0,0,0,0,0,0,0,0,0],"sum_hessian":[1.84E3,1.817E3,2.3E1,1.708E3,1.09E2,1.4E1,9E0,1.149E3,5.59E2,1E2,9E0,1.1E1,3E0,5E0,4E0,9.9E1,1.05E3,3.48E2,2.11E2,1.7E1,8.3E1,8E0,1E0,7E0,4E0,1E0,4E0,2E0,2E0,7.8E1,2.1E1,4E0,1.046E3,2.55E2,9.3E1,1.87E2,2.4E1,3E0,1.4E1,3.7E1,4.6E1,5E0,3E0,4E0,3E0,1E0,3E0,1E0,1E0,4.4E1,3.4E1,7E0,1.4E1,2E0,2E0,4.79E2,5.67E2,1.04E2,1.51E2,1.2E1,8.1E1,3.9E1,1.48E2,6E0,1.8E1,1E0,2E0,7E0,7E0,2.5E1,1.2E1,8E0,3.8E1,4E0,1E0,3E0,1E0,2E0,1E0,1E0,2E0],"tree_param":{"num_deleted":"0","num_feature":"4","num_nodes":"81","size_leaf_vector":"1"}},{"base_weights":[1.1189536E-2,-2.347408E-1,3.0012261E-2,-2.71429E-1,7.440877E-1,1.533622E-1,-3.471002E-2,-3.0805674E-1,3.1191596E-1,5.486187E-1,-5.885827E-1,-1.0004588E0,1.8940313E-1,-4.2256874E-1,-1.8502094E-2,-1.6346756E-1,-4.9399132E-1,-3.6567906E-1,4.6894023E-1,-2.641089E-1,-7.5330737E-4,1.361619E-1,-1.2368605E0,5.402959E-1,2.8206935E-2,3.7679404E-1,-6.0558754E-1,1.8918512E0,-3.2741204E-2,-5.448141E-1,1.4721853E-2,-9.834653E-1,-3.9599612E-1,-6.861718E-1,5.5061296E-2,-1.4421542E-2,8.818683E-2,-1.34771E0,-1.0326778E-1,3.0818212E-1,2.2830536E0,-1.7926741E0,9.0262696E-2,-2.1509708E-1,5.769816E-1,-3.4305787E-1,-1.5143753E0,1.0124987E0,3.2696533E-1,1.1137048E0,-4.0238746E-2,-1.03613235E-1,-3.0572468E-1,-4.2384446E-2,1.336796E-1,-1.5533763E-1,-3.9590716E-1,1.8962406E-1,-1.3755396E-1,-3.262701E-1,7.770202E-2,-5.5781724E-3,-9.1152196E-4,-4.1825318E-1,-1.18515395E-1,2.1438694E-1,-5.955131E-2,-2.2213225E-1,1.2601868E0,-1.6781199E-1,-1.0962242E0,1.8476133E0,1.742579E-2,-1.739323E-1,5.941944E-1,-6.692973E-1,-1.9146238E-1,-1.3419636E-1,5.1361674E-1,-1.0663224E-1,9.573138E-1,-1.371075E-1,-8.566699E-3],"categories":[],"categories_nodes":[],"categories_segments":[],"categories_sizes":[],"default_left":[0,0,0,0,0,0,0,0,0,0,0,0,0,0,0,0,0,0,0,0,0,0,0,0,0,0,0,0,0,0,0,0,0,0,0,0,0,0,0,0,0,0,0,0,0,0,0,0,0,0,0,0,0,0,0,0,0,0,0,0,0,0,0,0,0,0,0,0,0,0,0,0,0,0,0,0,0,0,0,0,0,0,0],"id":10,"left_children":[1,3,5,7,9,11,13,15,17,-1,19,21,23,25,27,29,31,33,-1,-1,-1,35,37,39,41,43,45,47,49,51,53,55,57,59,-1,61,-1,63,-1,65,67,69,71,-1,-1,73,75,-1,77,79,81,-1,-1,-1,-1,-1,-1,-1,-1,-1,-1,-1,-1,-1,-1,-1,-1,-1,-1,-1,-1,-1,-1,-1,-1,-1,-1,-1,-1,-1,-1,-1,-1],"loss_changes":[8.529179E0,4.9063683E0,1.3665073E1,2.8096485E0,8.303703E0,2.4682936E1,7.051792E0,3.1453438E0,7.3541584E0,0E0,5.1080203E-1,5.0049953E0,3.2338562E1,6.811611E0,2.9412605E1,4.696702E0,2.1047878E0,1.1820583E0,0E0,0E0,0E0,9.928407E-2,1.0203018E0,7.210966E1,4.4569298E1,1.6602585E1,8.308081E0,1.746411E1,9.25922E0,1.7289343E0,3.2894292E0,5.6924295E-1,3.1820698E0,1.7992476E0,0E0,8.5987966E-5,0E0,2.4707794E-2,0E0,3.3091957E1,1.2486324E2,2.7799774E1,7.4037415E1,0E0,0E0,1.765011E1,3.599165E0,0E0,6.128123E0,2.2497643E1,5.177675E0,0E0,0E0,0E0,0E0,0E0,0E0,0E0,0E0,0E0,0E0,0E0,0E0,0E0,0E0,0E0,0E0,0E0,0E0,0E0,0E0,0E0,0E0,0E0,0E0,0E0,0E0,0E0,0E0,0E0,0E0,0E0,0E0],"parents":[2147483647,0,0,1,1,2,2,3,3,4,4,5,5,6,6,7,7,8,8,10,10,11,11,12,12,13,13,14,14,15,15,16,16,17,17,21,21,22,22,23,23,24,24,25,25,26,26,27,27,28,28,29,29,30,30,31,31,32,32,33,33,35,35,37,37,39,39,40,40,41,41,42,42,45,45,46,46,48,48,49,49,50,50],"right_children":[2,4,6,8,10,12,14,16,18,-1,20,22,24,26,28,30,32,34,-1,-1,-1,36,38,40,42,44,46,48,50,52,54,56,58,60,-1,62,-1,64,-1,66,68,70,72,-1,-1,74,76,-1,78,80,82,-1,-1,-1,-1,-1,-1,-1,-1,-1,-1,-1,-1,-1,-1,-1,-1,-1,-1,-1,-1,-1,-1,-1,-1,-1,-1,-1,-1,-1,-1,-1,-1],"split_conditions":[4.061411E1,1.06E1,1.9800679E2,1.6053751E1,1.3500001E1,-6.733332E-1,2.0572084E2,2.2870626E1,2.6009844E1,5.486187E-1,8.970416E0,4.3488514E1,5.893333E0,1.4440443E1,2.0732777E2,1.4402278E1,2.340277E1,3.6927105E1,4.6894023E-1,-2.641089E-1,-7.5330737E-4,-2.6295831E0,4.9E0,5.1495833E0,6.3933334E0,1.2641076E1,2.0396248E2,6.6579165E0,9.793059E0,4E-1,7.720417E0,3E-1,2.4098497E1,1.9282917E1,5.5061296E-2,-3.9358332E0,8.818683E-2,-9.9625E-1,-1.0326778E-1,1E0,1E-1,1.0721618E2,6.439167E0,-2.1509708E-1,5.769816E-1,5.4E0,4.8912497E0,1.0124987E0,2.3300789E1,1.449125E1,2.124466E2,-1.03613235E-1,-3.0572468E-1,-4.2384446E-2,1.336796E-1,-1.5533763E-1,-3.9590716E-1,1.8962406E-1,-1.3755396E-1,-3.262701E-1,7.770202E-2,-5.5781724E-3,-9.1152196E-4,-4.1825318E-1,-1.18515395E-1,2.1438694E-1,-5.955131E-2,-2.2213225E-1,1.2601868E0,-1.6781199E-1,-1.0962242E0,1.8476133E0,1.742579E-2,-1.739323E-1,5.941944E-1,-6.692973E-1,-1.9146238E-1,-1.3419636E-1,5.1361674E-1,-1.0663224E-1,9.573138E-1,-1.371075E-1,-8.566699E-3],"split_indices":[3,1,3,0,1,0,3,2,2,0,0,3,0,2,3,3,2,3,0,0,0,0,1,0,0,2,3,0,2,1,0,1,2,0,0,0,0,0,0,1,1,3,0,0,0,1,0,0,2,0,3,0,0,0,0,0,0,0,0,0,0,0,0,0,0,0,0,0,0,0,0,0,0,0,0,0,0,0,0,0,0,0,0],"split_type":[0,0,0,0,0,0,0,0,0,0,0,0,0,0,0,0,0,0,0,0,0,0,0,0,0,0,0,0,0,0,0,0,0,0,0,0,0,0,0,0,0,0,0,0,0,0,0,0,0,0,0,0,0,0,0,0,0,0,0,0,0,0,0,0,0,0,0,0,0,0,0,0,0,0,0,0,0,0,0,0,0,0,0],"sum_hessian":[1.84E3,1.3E2,1.71E3,1.26E2,4E0,5.88E2,1.122E3,1.19E2,7E0,2E0,2E0,1.7E1,5.71E2,4.4E1,1.078E3,6.8E1,5.1E1,5E0,2E0,1E0,1E0,3E0,1.4E1,1.79E2,3.92E2,8E0,3.6E1,7E0,1.071E3,2.1E1,4.7E1,7E0,4.4E1,3E0,2E0,2E0,1E0,1.2E1,2E0,1.59E2,2E1,1.2E1,3.8E2,5E0,3E0,2.9E1,7E0,3E0,4E0,6E0,1.065E3,1.6E1,5E0,3.5E1,1.2E1,4E0,3E0,2E0,4.2E1,2E0,1E0,1E0,1E0,1.1E1,1E0,8.8E1,7.1E1,8E0,1.2E1,8E0,4E0,1E0,3.79E2,2.7E1,2E0,3E0,4E0,3E0,1E0,4E0,2E0,2.8E1,1.037E3],"tree_param":{"num_deleted":"0","num_feature":"4","num_nodes":"83","size_leaf_vector":"1"}},{"base_weights":[9.459951E-3,2.0567471E-2,-3.888228E-1,8.200902E-2,-4.3916993E-2,4.3889493E-1,-4.9646017E-1,-1.0044713E-1,2.212327E-1,-6.7137355E-1,-3.2192316E-2,-1.1110678E0,-3.0548272E-1,-1.3604808E-1,3.4402575E0,6.0727227E-1,1.05446674E-1,-1.1408268E0,-5.931694E-2,6.7064756E-1,-4.461596E-2,-4.0682974E-1,-1.0297138E-1,-9.8091E-2,-6.1694396E-1,-5.38824E-2,-8.253481E-1,1.598458E0,-3.3353242E-1,2.4563931E-1,2.403155E0,-5.8022183E-1,1.8919033E-1,-1.2953007E0,1.4244677E-2,5.3855187E-1,-5.257486E-1,-5.020412E-1,1.396133E0,-1.2015646E0,-3.3531096E-2,2.1456196E-3,-5.998105E-1,-1.0421771E0,-3.675703E-1,-4.8455168E-2,2.0109427E-1,4.1744378E-1,-3.4875807E-1,-7.804215E-2,5.143875E-1,1.4299695E0,-1.310733E-1,2.0892754E-2,-3.0984196E-1,4.500787E-1,2.8493779E-2,-1.4200545E-2,-4.4004583E-1,3.0776504E-1,1.0244059E-2,-3.7797406E-2,-1.7825702E-1,1.069061E0,2.6254153E-1,-4.7845253E-1,-4.346657E-3,4.409829E-1,-1.3837524E-2,-2.2449256E-1,2.3125127E-2,7.0955516E-3,-2.4465458E-1,-3.9049628E-1,-6.4029696E-4,7.102286E-2,-1.3550279E-1],"categories":[],"categories_nodes":[],"categories_segments":[],"categories_sizes":[],"default_left":[0,0,0,0,0,0,0,0,0,0,0,0,0,0,0,0,0,0,0,0,0,0,0,0,0,0,0,0,0,0,0,0,0,0,0,0,0,0,0,0,0,0,0,0,0,0,0,0,0,0,0,0,0,0,0,0,0,0,0,0,0,0,0,0,0,0,0,0,0,0,0,0,0,0,0,0,0],"id":11,"left_children":[1,3,5,7,9,-1,11,13,15,17,19,21,23,25,27,29,31,33,35,37,39,-1,-1,41,43,45,47,-1,-1,49,51,53,55,57,-1,59,61,-1,63,65,67,69,71,73,75,-1,-1,-1,-1,-1,-1,-1,-1,-1,-1,-1,-1,-1,-1,-1,-1,-1,-1,-1,-1,-1,-1,-1,-1,-1,-1,-1,-1,-1,-1,-1,-1],"loss_changes":[8.152459E0,7.1035504E0,1.069249E1,2.3341457E1,6.4155216E0,0E0,5.2946463E0,5.0636898E1,2.3223614E1,4.5296407E0,7.5392985E0,1.6041021E0,2.394073E0,2.2327065E1,4.0299522E1,7.734375E1,2.3192764E1,1.7135687E0,2.5140624E0,2.7845745E1,1.0809342E1,0E0,0E0,1.2082629E0,1.2075558E0,2.7702131E1,3.3011253E1,0E0,0E0,7.548734E1,1.3632733E2,1.3013146E1,4.4200283E1,1.6429625E0,0E0,9.482193E-1,6.1937094E-2,0E0,1.0431879E1,3.711689E0,1.5954034E1,1.2386727E0,5.572233E-1,1.3465586E0,6.6601837E-1,0E0,0E0,0E0,0E0,0E0,0E0,0E0,0E0,0E0,0E0,0E0,0E0,0E0,0E0,0E0,0E0,0E0,0E0,0E0,0E0,0E0,0E0,0E0,0E0,0E0,0E0,0E0,0E0,0E0,0E0,0E0,0E0],"parents":[2147483647,0,0,1,1,2,2,3,3,4,4,6,6,7,7,8,8,9,9,10,10,11,11,12,12,13,13,14,14,15,15,16,16,17,17,18,18,19,19,20,20,23,23,24,24,25,25,26,26,29,29,30,30,31,31,32,32,33,33,35,35,36,36,38,38,39,39,40,40,41,41,42,42,43,43,44,44],"right_children":[2,4,6,8,10,-1,12,14,16,18,20,22,24,26,28,30,32,34,36,38,40,-1,-1,42,44,46,48,-1,-1,50,52,54,56,58,-1,60,62,-1,64,66,68,70,72,74,76,-1,-1,-1,-1,-1,-1,-1,-1,-1,-1,-1,-1,-1,-1,-1,-1,-1,-1,-1,-1,-1,-1,-1,-1,-1,-1,-1,-1,-1,-1,-1,-1],"split_conditions":[1.1700001E1,2.3234946E2,1.79182E1,1E-1,2.337257E2,4.3889493E-1,4.685E0,2.304016E2,5E-1,3.010685E1,2.3463249E2,1.63E1,3.3202072E1,2.0732777E2,3.14125E0,4E-1,8E-1,1.899333E1,3.3518684E1,2.1566973E1,2.356354E2,-4.0682974E-1,-1.0297138E-1,1.6776667E1,2.0244278E2,1.6920221E2,1.3009903E1,1.598458E0,-3.3353242E-1,1.8135672E2,1.6134026E2,1.9562946E1,9.000001E-1,1.3100001E0,1.4244677E-2,2.3620832E0,1E-1,-5.020412E-1,2.2225E0,2.8528723E1,2.3626512E2,3.1688461E1,1.2800001E1,1.4616249E1,4.7829165E0,-4.8455168E-2,2.0109427E-1,4.1744378E-1,-3.4875807E-1,-7.804215E-2,5.143875E-1,1.4299695E0,-1.310733E-1,2.0892754E-2,-3.0984196E-1,4.500787E-1,2.8493779E-2,-1.4200545E-2,-4.4004583E-1,3.0776504E-1,1.0244059E-2,-3.7797406E-2,-1.7825702E-1,1.069061E0,2.6254153E-1,-4.7845253E-1,-4.346657E-3,4.409829E-1,-1.3837524E-2,-2.2449256E-1,2.3125127E-2,7.0955516E-3,-2.4465458E-1,-3.9049628E-1,-6.4029696E-4,7.102286E-2,-1.3550279E-1],"split_indices":[1,3,3,1,3,0,0,3,1,2,3,1,2,3,0,1,1,0,2,2,3,0,0,0,3,3,2,0,0,3,3,2,1,0,0,0,1,0,0,2,3,3,1,0,0,0,0,0,0,0,0,0,0,0,0,0,0,0,0,0,0,0,0,0,0,0,0,0,0,0,0,0,0,0,0,0,0],"split_type":[0,0,0,0,0,0,0,0,0,0,0,0,0,0,0,0,0,0,0,0,0,0,0,0,0,0,0,0,0,0,0,0,0,0,0,0,0,0,0,0,0,0,0,0,0,0,0,0,0,0,0,0,0,0,0,0,0,0,0,0,0,0,0,0,0,0,0,0,0,0,0,0,0,0,0,0,0],"sum_hessian":[1.84E3,1.791E3,4.9E1,9.17E2,8.74E2,2E0,4.7E1,3.97E2,5.2E2,1.5E1,8.59E2,1E1,3.7E1,3.94E2,3E0,1.19E2,4.01E2,8E0,7E0,1.4E1,8.45E2,7E0,3E0,2.3E1,1.4E1,3.53E2,4.1E1,2E0,1E0,1E2,1.9E1,4.3E1,3.58E2,7E0,1E0,3E0,4E0,3E0,1.1E1,7E0,8.38E2,2E1,3E0,4E0,1E1,3.08E2,4.5E1,5E0,3.6E1,7.5E1,2.5E1,1E1,9E0,1.8E1,2.5E1,2.3E1,3.35E2,1E0,6E0,1E0,2E0,1E0,3E0,1E0,1E1,5E0,2E0,6E0,8.32E2,1E0,1.9E1,1E0,2E0,3E0,1E0,1E0,9E0],"tree_param":{"num_deleted":"0","num_feature":"4","num_nodes":"77","size_leaf_vector":"1"}},{"base_weights":[8.18716E-3,4.8399206E-2,-8.678104E-2,-7.175032E-3,2.6838145E-1,-7.151631E-1,-6.0384106E-2,3.9937604E-2,-5.2045786E-1,6.257354E-1,-5.963044E-2,-1.9653361E0,-4.1432863E-1,8.7872525E-7,-3.4970117E-1,-4.1655377E-2,3.5727143E-1,-8.512494E-1,2.883704E-1,-1.7732231E-1,1.0955832E0,-1.6755132E-1,9.826574E-1,-1.2550381E-1,-7.024653E-1,1.9707286E-1,-5.103368E-1,-4.186129E-2,9.2317176E-1,-4.5793542E-1,1.2599397E0,1.8844258E-2,-5.523566E-1,6.6192055E-1,-7.5904734E-2,-1.2454591E0,-3.597191E-1,-3.7147593E-1,7.9702276E-1,-4.9397114E-1,1.0436755E0,1.8250132E0,1.7362489E-1,8.415273E-3,-9.917775E-1,-1.5494274E-1,2.833806E0,-3.2072687E-1,-2.1319427E-1,1.3540293E-2,-4.087652E-1,2.130769E0,-1.4878714E-1,-1.0793855E0,-3.4257343E-1,2.3918269E0,-2.0076695E-1,-4.4103214E-3,1.7957354E-1,-2.6598123E-1,-3.576121E-2,3.5162973E-1,-7.217353E-2,6.539961E-2,-7.591908E-2,-5.417024E-3,-5.059805E-1,-1.6965437E-1,4.813172E-2,5.956532E-2,-1.3240401E-1,-4.91174E-2,5.755228E-1,-3.454424E-1,9.016775E-2,-2.937045E-2,1.1219968E0,1.0944753E0,8.8026814E-2,-2.9753807E-1,2.6263833E-1,1.07387275E-1,-7.024349E-2,-7.0292116E-3,-3.8256213E-1,-1.7725301E-1,9.358393E-2,1.0121014E0,1.0115192E-1,-1.2778704E-1,-8.091939E-3,-1.1760334E-3,4.7709656E-1,-3.961767E-1,-3.7077416E-2,-1.3777694E-1,1.0506974E0,-1.2006737E-1,3.548381E-1,-4.0829957E-1,3.4499562E-1,7.972542E-2,-1.1433939E-1,9.4843394E-1,3.2444152E-1],"categories":[],"categories_nodes":[],"categories_segments":[],"categories_sizes":[],"default_left":[0,0,0,0,0,0,0,0,0,0,0,0,0,0,0,0,0,0,0,0,0,0,0,0,0,0,0,0,0,0,0,0,0,0,0,0,0,0,0,0,0,0,0,0,0,0,0,0,0,0,0,0,0,0,0,0,0,0,0,0,0,0,0,0,0,0,0,0,0,0,0,0,0,0,0,0,0,0,0,0,0,0,0,0,0,0,0,0,0,0,0,0,0,0,0,0,0,0,0,0,0,0,0,0,0],"id":12,"left_children":[1,3,5,7,9,11,13,15,17,19,21,23,25,27,29,31,33,35,37,39,41,43,45,-1,-1,-1,47,49,51,53,55,57,59,61,63,65,67,69,71,73,75,77,79,81,83,85,87,-1,89,91,93,95,97,99,101,103,-1,-1,-1,-1,-1,-1,-1,-1,-1,-1,-1,-1,-1,-1,-1,-1,-1,-1,-1,-1,-1,-1,-1,-1,-1,-1,-1,-1,-1,-1,-1,-1,-1,-1,-1,-1,-1,-1,-1,-1,-1,-1,-1,-1,-1,-1,-1,-1,-1],"loss_changes":[7.034732E0,1.5821522E1,9.04669E0,2.5025084E1,3.0630781E1,7.459798E0,9.206904E0,2.45607E1,2.352263E1,4.7358635E1,1.557504E1,1.348423E0,2.2893503E0,1.6926916E1,1.643083E1,2.3337822E1,2.5651787E1,1.1565479E1,9.022518E0,1.868704E1,5.281095E1,1.8137878E1,2.781535E1,0E0,0E0,0E0,2.760602E0,8.5225725E0,2.4912432E1,5.795719E0,1.4702232E1,1.3155226E1,1.1476728E1,5.2771652E1,4.2726426E0,1.8379166E1,3.195069E0,5.655682E-1,1.6474625E1,2.0197533E1,3.1146645E1,1.21797455E2,3.031386E1,8.90146E0,6.0082016E0,2.015967E0,5.601715E0,0E0,5.035819E-1,1.0055138E1,1.4138343E1,3.357974E1,4.156285E0,9.726787E0,1.8370085E0,6.1488724E-1,0E0,0E0,0E0,0E0,0E0,0E0,0E0,0E0,0E0,0E0,0E0,0E0,0E0,0E0,0E0,0E0,0E0,0E0,0E0,0E0,0E0,0E0,0E0,0E0,0E0,0E0,0E0,0E0,0E0,0E0,0E0,0E0,0E0,0E0,0E0,0E0,0E0,0E0,0E0,0E0,0E0,0E0,0E0,0E0,0E0,0E0,0E0,0E0,0E0],"parents":[2147483647,0,0,1,1,2,2,3,3,4,4,5,5,6,6,7,7,8,8,9,9,10,10,11,11,12,12,13,13,14,14,15,15,16,16,17,17,18,18,19,19,20,20,21,21,22,22,26,26,27,27,28,28,29,29,30,30,31,31,32,32,33,33,34,34,35,35,36,36,37,37,38,38,39,39,40,40,41,41,42,42,43,43,44,44,45,45,46,46,48,48,49,49,50,50,51,51,52,52,53,53,54,54,55,55],"right_children":[2,4,6,8,10,12,14,16,18,20,22,24,26,28,30,32,34,36,38,40,42,44,46,-1,-1,-1,48,50,52,54,56,58,60,62,64,66,68,70,72,74,76,78,80,82,84,86,88,-1,90,92,94,96,98,100,102,104,-1,-1,-1,-1,-1,-1,-1,-1,-1,-1,-1,-1,-1,-1,-1,-1,-1,-1,-1,-1,-1,-1,-1,-1,-1,-1,-1,-1,-1,-1,-1,-1,-1,-1,-1,-1,-1,-1,-1,-1,-1,-1,-1,-1,-1,-1,-1,-1,-1],"split_conditions":[2.7595825E1,2.4522314E1,2.7908709E1,2.3469128E1,9.074582E0,3.1954165E0,6.2E0,2.1313093E1,1.1376668E1,3.0454168E0,2.7267473E1,-1.1608335E0,3.7370834E0,5.4E0,5.221117E1,2.0620806E1,2.4270435E2,2.2922856E2,2E-1,2.6867676E1,5E-1,3.3000002E0,2.9E0,-1.2550381E-1,-7.024653E-1,1.9707286E-1,5.5849996E0,3.2999997E0,3.4860565E1,3.0248568E1,1.0700001E1,2.0172853E1,2.417646E2,1.0724584E1,4.685E0,6.3232296E1,5.1495833E0,2.3535301E1,2.3979893E1,2.5043204E2,4.3999996E0,2.2070627E2,1.4000001E0,2.341453E2,1.4926498E2,2.7381308E1,1.8366771E2,-3.2072687E-1,2.2681871E2,3.2E0,2.2175105E2,1.9620699E2,1.3064166E1,2.337257E2,5.364551E1,5.4370837E0,-2.0076695E-1,-4.4103214E-3,1.7957354E-1,-2.6598123E-1,-3.576121E-2,3.5162973E-1,-7.217353E-2,6.539961E-2,-7.591908E-2,-5.417024E-3,-5.059805E-1,-1.6965437E-1,4.813172E-2,5.956532E-2,-1.3240401E-1,-4.91174E-2,5.755228E-1,-3.454424E-1,9.016775E-2,-2.937045E-2,1.1219968E0,1.0944753E0,8.8026814E-2,-2.9753807E-1,2.6263833E-1,1.07387275E-1,-7.024349E-2,-7.0292116E-3,-3.8256213E-1,-1.7725301E-1,9.358393E-2,1.0121014E0,1.0115192E-1,-1.2778704E-1,-8.091939E-3,-1.1760334E-3,4.7709656E-1,-3.961767E-1,-3.7077416E-2,-1.3777694E-1,1.0506974E0,-1.2006737E-1,3.548381E-1,-4.0829957E-1,3.4499562E-1,7.972542E-2,-1.1433939E-1,9.4843394E-1,3.2444152E-1],"split_indices":[2,2,2,2,0,0,1,2,0,0,2,0,0,1,2,2,3,3,1,2,1,1,1,0,0,0,0,1,2,2,1,2,3,0,0,3,0,2,2,3,1,3,1,3,3,2,3,0,3,1,3,3,0,3,3,0,0,0,0,0,0,0,0,0,0,0,0,0,0,0,0,0,0,0,0,0,0,0,0,0,0,0,0,0,0,0,0,0,0,0,0,0,0,0,0,0,0,0,0,0,0,0,0,0,0],"split_type":[0,0,0,0,0,0,0,0,0,0,0,0,0,0,0,0,0,0,0,0,0,0,0,0,0,0,0,0,0,0,0,0,0,0,0,0,0,0,0,0,0,0,0,0,0,0,0,0,0,0,0,0,0,0,0,0,0,0,0,0,0,0,0,0,0,0,0,0,0,0,0,0,0,0,0,0,0,0,0,0,0,0,0,0,0,0,0,0,0,0,0,0,0,0,0,0,0,0,0,0,0,0,0,0,0],"sum_hessian":[1.84E3,1.293E3,5.47E2,1.033E3,2.6E2,2.1E1,5.26E2,9.47E2,8.6E1,1.24E2,1.36E2,3E0,1.8E1,4.36E2,9E1,7.54E2,1.93E2,6.1E1,2.5E1,4.6E1,7.8E1,1.24E2,1.2E1,1E0,2E0,1E0,1.7E1,4.18E2,1.8E1,8.5E1,5E0,6.75E2,7.9E1,1.13E2,8E1,3.3E1,2.8E1,1.1E1,1.4E1,3.7E1,9E0,4.3E1,3.5E1,1.03E2,2.1E1,8E0,4E0,5E0,1.2E1,3.64E2,5.4E1,8E0,1E1,1.2E1,7.3E1,3E0,2E0,6.39E2,3.6E1,4.4E1,3.5E1,7.2E1,4.1E1,3E1,5E1,9E0,2.4E1,2E1,8E0,1E0,1E1,8E0,6E0,2E1,1.7E1,7E0,2E0,1.9E1,2.4E1,1.3E1,2.2E1,4.2E1,6.1E1,5E0,1.6E1,4E0,4E0,3E0,1E0,5E0,7E0,3.61E2,3E0,1.2E1,4.2E1,3E0,5E0,9E0,1E0,1.1E1,1E0,4E0,6.9E1,1E0,2E0],"tree_param":{"num_deleted":"0","num_feature":"4","num_nodes":"105","size_leaf_vector":"1"}},{"base_weights":[7.741943E-3,-2.3021542E-1,2.7008595E-2,-3.8053613E-2,-3.864783E-1,1.0107334E0,2.2355203E-2,-9.700586E-2,3.51998E-1,3.0590843E-2,-5.462791E-1,1.5716208E0,-1.3438576E-1,1.6570836E-2,6.290394E-1,-2.5825745E-1,1.4552674E-1,-9.574436E-2,4.0254453E-1,-6.3609654E-1,4.7911486E-1,6.7391914E-1,1.480457E-1,2.562483E-1,3.8116656E-3,8.537295E-1,2.181908E-1,-4.161533E-2,-4.403225E-1,-1.3660238E-2,9.846734E-1,-5.02566E-1,1.00488685E-1,-6.8142325E-1,3.1627226E-1,3.6652717E-1,-4.232324E-1,2.307919E-1,-1.6417134E-1,-2.228122E-1,1.6382312E0,-8.286942E-1,2.9020406E-2,1.9714528E-1,1.1069591E0,4.258183E-1,-1.5413612E-1,-3.782148E-2,2.0912115E-1,-1.5671283E-1,5.9631925E-2,3.8635563E-2,-2.0605832E-1,3.5406423E-1,5.9707746E-2,-6.2420428E-2,-1.7362545E-1,2.731236E-1,-5.335794E-2,-2.4431624E-1,-1.2858519E-1,1.5482558E-1,-1.2503064E-2,3.2227565E-2,-2.2268215E-1,-1.4386046E-1,2.4636535E-1,8.818375E-1,1.5338087E-1,5.9913483E-2,-3.3361182E-1,4.1673753E-1,4.9886787E-3,-1.5383077E-2,1.4136179E-1,3.724057E-1,4.5089975E-2,2.0892297E-1,3.4926012E-2],"categories":[],"categories_nodes":[],"categories_segments":[],"categories_sizes":[],"default_left":[0,0,0,0,0,0,0,0,0,0,0,0,0,0,0,0,0,0,0,0,0,0,0,0,0,0,0,0,0,0,0,0,0,0,0,0,0,0,0,0,0,0,0,0,0,0,0,0,0,0,0,0,0,0,0,0,0,0,0,0,0,0,0,0,0,0,0,0,0,0,0,0,0,0,0,0,0,0,0],"id":13,"left_children":[1,3,5,7,9,11,13,15,-1,17,19,21,-1,23,25,27,29,31,-1,33,35,-1,37,39,41,43,45,47,49,51,53,55,57,59,61,-1,63,-1,-1,65,67,69,71,73,75,77,-1,-1,-1,-1,-1,-1,-1,-1,-1,-1,-1,-1,-1,-1,-1,-1,-1,-1,-1,-1,-1,-1,-1,-1,-1,-1,-1,-1,-1,-1,-1,-1,-1],"loss_changes":[8.446544E0,4.129123E0,7.777734E0,4.612876E0,5.081957E0,7.249281E0,5.94483E0,2.4232183E0,0E0,3.7728539E0,5.370167E0,5.430997E0,0E0,5.142723E0,1.2907419E0,1.4410651E0,3.3529816E0,1.7269709E0,0E0,2.4170742E0,3.8676934E0,0E0,1.71685E0,5.6639565E1,3.3560356E1,1.4444332E0,1.2826309E0,1.2108402E0,1.152636E0,2.1981342E0,3.7961102E-1,3.6635637E-2,3.5435395E0,1.2980328E0,2.3607752E-1,0E0,5.876441E-1,0E0,0E0,1.7547476E1,3.075867E1,1.3917595E1,2.613385E1,2.96493E-1,7.1340466E-1,4.2124724E-1,0E0,0E0,0E0,0E0,0E0,0E0,0E0,0E0,0E0,0E0,0E0,0E0,0E0,0E0,0E0,0E0,0E0,0E0,0E0,0E0,0E0,0E0,0E0,0E0,0E0,0E0,0E0,0E0,0E0,0E0,0E0,0E0,0E0],"parents":[2147483647,0,0,1,1,2,2,3,3,4,4,5,5,6,6,7,7,9,9,10,10,11,11,13,13,14,14,15,15,16,16,17,17,19,19,20,20,22,22,23,23,24,24,25,25,26,26,27,27,28,28,29,29,30,30,31,31,32,32,33,33,34,34,36,36,39,39,40,40,41,41,42,42,43,43,44,44,45,45],"right_children":[2,4,6,8,10,12,14,16,-1,18,20,22,-1,24,26,28,30,32,-1,34,36,-1,38,40,42,44,46,48,50,52,54,56,58,60,62,-1,64,-1,-1,66,68,70,72,74,76,78,-1,-1,-1,-1,-1,-1,-1,-1,-1,-1,-1,-1,-1,-1,-1,-1,-1,-1,-1,-1,-1,-1,-1,-1,-1,-1,-1,-1,-1,-1,-1,-1,-1],"split_conditions":[4.3488514E1,2.1129883E1,4.550518E1,7.3E0,5.8083326E-1,8.000001E-1,2.1168333E1,1.9296135E1,3.51998E-1,1.8708332E-1,1.6053751E1,2.1566973E1,-1.3438576E-1,1.272283E1,1.872346E1,3.2954166E0,8.201667E0,1.1986057E1,4.0254453E-1,1.73E1,1.6505835E1,6.7391914E-1,5.085E0,1.2287555E1,1.3633737E1,1.4118243E1,1.3545966E2,2.14125E0,1.6505835E1,3.6927105E1,2.0056877E1,2.2714973E1,1.79182E1,2.7212759E1,7.339167E0,3.6652717E-1,1.8799582E1,2.307919E-1,-1.6417134E-1,4E-1,4.0725007E0,9.624874E1,1.383192E1,2.1518333E1,2.0297495E2,2.1518333E1,-1.5413612E-1,-3.782148E-2,2.0912115E-1,-1.5671283E-1,5.9631925E-2,3.8635563E-2,-2.0605832E-1,3.5406423E-1,5.9707746E-2,-6.2420428E-2,-1.7362545E-1,2.731236E-1,-5.335794E-2,-2.4431624E-1,-1.2858519E-1,1.5482558E-1,-1.2503064E-2,3.2227565E-2,-2.2268215E-1,-1.4386046E-1,2.4636535E-1,8.818375E-1,1.5338087E-1,5.9913483E-2,-3.3361182E-1,4.1673753E-1,4.9886787E-3,-1.5383077E-2,1.4136179E-1,3.724057E-1,4.5089975E-2,2.0892297E-1,3.4926012E-2],"split_indices":[3,2,3,1,0,1,0,2,0,0,0,2,0,2,2,0,0,3,0,1,0,0,0,2,2,2,3,0,0,3,2,2,3,2,0,0,0,0,0,1,0,3,2,0,3,0,0,0,0,0,0,0,0,0,0,0,0,0,0,0,0,0,0,0,0,0,0,0,0,0,0,0,0,0,0,0,0,0,0],"split_type":[0,0,0,0,0,0,0,0,0,0,0,0,0,0,0,0,0,0,0,0,0,0,0,0,0,0,0,0,0,0,0,0,0,0,0,0,0,0,0,0,0,0,0,0,0,0,0,0,0,0,0,0,0,0,0,0,0,0,0,0,0,0,0,0,0,0,0,0,0,0,0,0,0,0,0,0,0,0,0],"sum_hessian":[1.84E3,1.37E2,1.703E3,6.2E1,7.5E1,7E0,1.696E3,6E1,2E0,2.1E1,5.4E1,5E0,2E0,1.681E3,1.5E1,3.6E1,2.4E1,2E1,1E0,5E1,4E0,3E0,2E0,8.4E1,1.597E3,9E0,6E0,1.7E1,1.9E1,2.1E1,3E0,6E0,1.4E1,4.8E1,2E0,2E0,2E0,1E0,1E0,6.3E1,2.1E1,4.6E1,1.551E3,3E0,6E0,5E0,1E0,1.6E1,1E0,1.7E1,2E0,1.8E1,3E0,2E0,1E0,2E0,4E0,3E0,1.1E1,3E1,1.8E1,1E0,1E0,1E0,1E0,5.1E1,1.2E1,9E0,1.2E1,1E1,3.6E1,1.3E1,1.538E3,2E0,1E0,5E0,1E0,2E0,3E0],"tree_param":{"num_deleted":"0","num_feature":"4","num_nodes":"79","size_leaf_vector":"1"}},{"base_weights":[7.3364815E-3,2.7095469E-2,-1.1238112E-1,-1.5387307E-1,4.4371482E-2,-1.2221677E-2,-2.0434956E-1,-2.2703195E-2,-2.8471392E-1,-7.039983E-1,5.3780228E-2,-5.668472E-2,4.5777237E-1,-2.1436171E-1,1.796419E-1,-7.9116605E-2,3.7907058E-1,-5.93991E-1,5.1129855E-2,-9.9476624E-1,-3.719073E-1,3.1578708E-1,2.32151E-2,2.4327064E-1,-1.179468E-1,3.731728E-1,2.5476778E-1,-1.1825221E-1,-2.5742048E-1,-2.6833536E-3,7.3645666E-2,-4.531494E-1,9.125234E-3,-7.055533E-1,2.3880586E-1,-1.1942025E-2,7.0685333E-1,-5.616251E-1,-3.6868623E-1,3.3297268E-1,-5.8974886E-1,2.3677279E-1,2.544044E0,-2.717033E-1,5.5963658E-2,1.11545734E-1,3.9187375E-1,-2.5368616E-1,-1.8240489E-2,3.9104062E-1,-5.8064736E-2,-3.6018142E-1,-1.2983436E-2,-4.06758E-1,-1.5227668E-1,-6.84162E-2,-2.707802E-1,4.9546555E-2,-3.3917498E-2,-1.4998434E-1,-3.0197003E-1,1.9301005E-1,-2.0691569E-1,2.8183917E-2,-1.4593486E-1,-1.0627592E-2,3.287116E-1,-1.8548124E-1,-5.0256427E-2,1.554509E-1,-5.613184E-3,-3.0103153E-1,-4.2254247E-2,2.7709205E-2,2.7787212E-1,1.3314418E0,-5.9419636E-2,2.8133413E-1,-1.5947257E-1,3.2019433E-1,1.1418495E-2,9.827649E-2,1.0673518E-2,1.4477344E-1,-5.0064184E-2,-8.2814656E-2,9.6123256E-2,2.2092684E-1,-3.148987E-2,-1.1255741E-4,1.5647253E-1,-1.4673534E-1,1.566144E-2,-1.3655437E-2,1.4445859E-1,-1.346155E-1,-3.4552988E-2,-1.571461E-2,-1.1774881E-1],"categories":[],"categories_nodes":[],"categories_segments":[],"categories_sizes":[],"default_left":[0,0,0,0,0,0,0,0,0,0,0,0,0,0,0,0,0,0,0,0,0,0,0,0,0,0,0,0,0,0,0,0,0,0,0,0,0,0,0,0,0,0,0,0,0,0,0,0,0,0,0,0,0,0,0,0,0,0,0,0,0,0,0,0,0,0,0,0,0,0,0,0,0,0,0,0,0,0,0,0,0,0,0,0,0,0,0,0,0,0,0,0,0,0,0,0,0,0,0],"id":14,"left_children":[1,3,5,7,9,11,13,15,17,19,21,23,25,27,29,31,-1,33,35,37,39,41,43,45,47,-1,49,51,53,-1,-1,55,57,59,61,63,65,67,-1,69,71,73,75,77,79,81,83,85,87,89,-1,91,93,95,97,-1,-1,-1,-1,-1,-1,-1,-1,-1,-1,-1,-1,-1,-1,-1,-1,-1,-1,-1,-1,-1,-1,-1,-1,-1,-1,-1,-1,-1,-1,-1,-1,-1,-1,-1,-1,-1,-1,-1,-1,-1,-1,-1,-1],"loss_changes":[4.357928E0,4.94969E0,2.4017062E0,2.361944E0,1.0205388E1,2.6590168E0,5.613718E-1,5.1793776E0,7.197316E0,1.368144E0,1.1420475E1,2.1602962E0,1.4385755E0,5.199609E-1,5.186461E-2,2.2484984E0,0E0,3.5132046E0,1.4146034E0,2.2271538E-1,1.7318921E0,2.5631195E1,1.2367982E1,3.4778273E-1,1.3081775E0,0E0,6.8661976E-1,1.09043E0,1.3669348E0,0E0,0E0,1.1093612E0,1.0862725E0,1.4772491E0,2.3219666E0,1.6535352E0,9.047251E-1,8.047581E-3,0E0,2.0508733E-1,1.3443148E0,1.4351399E1,2.6848118E1,4.0730286E1,2.081658E1,1.8529104E-1,5.3666615E-1,6.148219E-1,3.8078773E0,4.0894186E-1,0E0,7.167648E-1,5.2067095E-1,4.0100718E-1,1.2992548E0,0E0,0E0,0E0,0E0,0E0,0E0,0E0,0E0,0E0,0E0,0E0,0E0,0E0,0E0,0E0,0E0,0E0,0E0,0E0,0E0,0E0,0E0,0E0,0E0,0E0,0E0,0E0,0E0,0E0,0E0,0E0,0E0,0E0,0E0,0E0,0E0,0E0,0E0,0E0,0E0,0E0,0E0,0E0,0E0],"parents":[2147483647,0,0,1,1,2,2,3,3,4,4,5,5,6,6,7,7,8,8,9,9,10,10,11,11,12,12,13,13,14,14,15,15,17,17,18,18,19,19,20,20,21,21,22,22,23,23,24,24,26,26,27,27,28,28,31,31,32,32,33,33,34,34,35,35,36,36,37,37,39,39,40,40,41,41,42,42,43,43,44,44,45,45,46,46,47,47,48,48,49,49,51,51,52,52,53,53,54,54],"right_children":[2,4,6,8,10,12,14,16,18,20,22,24,26,28,30,32,-1,34,36,38,40,42,44,46,48,-1,50,52,54,-1,-1,56,58,60,62,64,66,68,-1,70,72,74,76,78,80,82,84,86,88,90,-1,92,94,96,98,-1,-1,-1,-1,-1,-1,-1,-1,-1,-1,-1,-1,-1,-1,-1,-1,-1,-1,-1,-1,-1,-1,-1,-1,-1,-1,-1,-1,-1,-1,-1,-1,-1,-1,-1,-1,-1,-1,-1,-1,-1,-1,-1,-1],"split_conditions":[2.761896E2,4.3488514E1,2.0620806E1,3.357917E0,-6.733332E-1,1.6101665E1,5.6000004E0,3.1954165E0,9.074582E0,2.167786E1,2.9370832E0,-6.733332E-1,1.6345415E1,1.3100001E0,1.4193334E1,9.967914E0,3.7907058E-1,4.1000004E0,9.099999E0,-1.1608335E0,2.3893261E1,2.8891666E0,4.3683333E0,1.7208603E1,3.6037495E0,3.731728E-1,1.9282917E1,2.9388962E2,5.1495833E0,-2.6833536E-3,7.3645666E-2,2.2771244E1,-5.275E-1,1E-1,8.589168E0,2.7000003E0,1.5064166E1,1.803237E1,-3.6868623E-1,-2.6295831E0,3E-1,3.2396E1,1.8566357E2,1.8129137E1,4.5495834E0,1.3324863E1,1.9881649E1,1.9881649E1,4.0725007E0,2.8034662E2,-5.8064736E-2,9.5166665E-1,3.590086E1,3.7467678E1,2.9799457E2,-6.84162E-2,-2.707802E-1,4.9546555E-2,-3.3917498E-2,-1.4998434E-1,-3.0197003E-1,1.9301005E-1,-2.0691569E-1,2.8183917E-2,-1.4593486E-1,-1.0627592E-2,3.287116E-1,-1.8548124E-1,-5.0256427E-2,1.554509E-1,-5.613184E-3,-3.0103153E-1,-4.2254247E-2,2.7709205E-2,2.7787212E-1,1.3314418E0,-5.9419636E-2,2.8133413E-1,-1.5947257E-1,3.2019433E-1,1.1418495E-2,9.827649E-2,1.0673518E-2,1.4477344E-1,-5.0064184E-2,-8.2814656E-2,9.6123256E-2,2.2092684E-1,-3.148987E-2,-1.1255741E-4,1.5647253E-1,-1.4673534E-1,1.566144E-2,-1.3655437E-2,1.4445859E-1,-1.346155E-1,-3.4552988E-2,-1.571461E-2,-1.1774881E-1],"split_indices":[3,3,2,0,0,0,1,0,0,2,0,0,0,0,0,3,0,1,1,0,2,0,0,2,0,0,0,3,0,0,0,2,0,1,0,1,0,2,0,0,1,2,3,2,0,2,2,2,0,3,0,0,2,2,3,0,0,0,0,0,0,0,0,0,0,0,0,0,0,0,0,0,0,0,0,0,0,0,0,0,0,0,0,0,0,0,0,0,0,0,0,0,0,0,0,0,0,0,0],"split_type":[0,0,0,0,0,0,0,0,0,0,0,0,0,0,0,0,0,0,0,0,0,0,0,0,0,0,0,0,0,0,0,0,0,0,0,0,0,0,0,0,0,0,0,0,0,0,0,0,0,0,0,0,0,0,0,0,0,0,0,0,0,0,0,0,0,0,0,0,0,0,0,0,0,0,0,0,0,0,0,0,0,0,0,0,0,0,0,0,0,0,0,0,0,0,0,0,0,0,0],"sum_hessian":[1.84E3,1.58E3,2.6E2,1.37E2,1.443E3,1.25E2,1.35E2,6.9E1,6.8E1,1.7E1,1.426E3,1.15E2,1E1,1.32E2,3E0,6.7E1,2E0,3.5E1,3.3E1,8E0,9E0,1.48E2,1.278E3,1.9E1,9.6E1,1E0,9E0,4.2E1,9E1,1E0,2E0,1.2E1,5.5E1,3.1E1,4E0,3.1E1,2E0,4E0,4E0,2E0,7E0,1.44E2,4E0,1.27E2,1.151E3,1.1E1,8E0,4E1,5.6E1,7E0,2E0,1.2E1,3E1,3.6E1,5.4E1,9E0,3E0,2.4E1,3.1E1,2E1,1.1E1,3E0,1E0,2.6E1,5E0,1E0,1E0,3E0,1E0,1E0,1E0,3E0,4E0,1.2E2,2.4E1,2E0,2E0,2.2E1,1.05E2,1.9E1,1.132E3,2E0,9E0,7E0,1E0,3.9E1,1E0,5E0,5.1E1,2E0,5E0,9E0,3E0,2.9E1,1E0,3.1E1,5E0,3.9E1,1.5E1],"tree_param":{"num_deleted":"0","num_feature":"4","num_nodes":"99","size_leaf_vector":"1"}},{"base_weights":[6.0421783E-3,-1.1620007E-1,2.2277284E-2,1.4854255E-1,-3.2139966E-1,2.6968548E-1,-1.1428632E-2,-1.2807527E-1,9.722067E-1,-5.25374E-1,2.6869616E-1,1.0995887E-1,1.1801908E0,-4.6866E-1,2.9230561E-2,-3.3410245E-1,6.1390126E-1,-3.4464338E-1,1.4303036E0,-1.2630737E0,-2.7186E-1,1.3959448E0,-2.2839405E-2,-4.4503817E-1,3.246275E-1,3.4922862E0,1.3309322E-1,2.8756946E-1,-7.4459815E-1,1.524138E0,2.2366583E-2,-5.384796E-1,3.320904E-1,8.1235594E-1,-7.761477E-2,-7.0897007E-1,1.0584414E-1,3.9771261E0,6.557974E-1,-2.7150789E-3,-9.66999E-1,8.660512E-1,-4.0923658E-1,3.8381588E-1,-4.8219278E-1,-5.170351E-1,4.3002334E-1,8.465207E-1,-1.6928248E-1,4.748904E0,-6.039173E-1,-3.4943688E-1,8.15293E-1,-2.3685668E-1,8.2679915E-1,-1.4493805E0,1.8379487E-1,7.0215356E-1,-7.240643E-2,6.0540915E-2,-1.6415456E-1,1.4479351E-2,-2.530897E-1,5.46135E-1,-7.179639E-2,-1.2288021E-1,5.859325E-1,5.4659873E-2,-3.2002795E-1,-9.304444E-2,1.04367286E-1,1.5578526E0,4.949663E-2,4.0376374E-1,-3.4877695E-2,-2.7686045E-1,9.126866E-2,-1.9509621E-1,7.021359E-2,5.369188E-1,2.3113653E-2,-2.2083318E-1,-5.0400276E-2,-1.2354525E-1,-3.13325E-1,4.1591626E-1,-5.891989E-2,-3.848181E-1,-2.1588248E-3,6.6221595E-2,1.9548069E0,-3.210246E-1,4.9261812E-2,9.138183E-2,-2.3888688E-1,5.7272017E-1,6.9018684E-2,4.038826E-1,-1.6130778E-1,6.199441E-1,7.2409645E-2,-7.1344197E-1,-2.5001603E-1,4.1231248E-1,9.911562E-4,-4.2966656E-2,1.03837615E-2,-2.863065E-2,4.358766E-2,-8.477733E-2,4.0350527E-2],"categories":[],"categories_nodes":[],"categories_segments":[],"categories_sizes":[],"default_left":[0,0,0,0,0,0,0,0,0,0,0,0,0,0,0,0,0,0,0,0,0,0,0,0,0,0,0,0,0,0,0,0,0,0,0,0,0,0,0,0,0,0,0,0,0,0,0,0,0,0,0,0,0,0,0,0,0,0,0,0,0,0,0,0,0,0,0,0,0,0,0,0,0,0,0,0,0,0,0,0,0,0,0,0,0,0,0,0,0,0,0,0,0,0,0,0,0,0,0,0,0,0,0,0,0,0,0,0,0,0,0],"id":15,"left_children":[1,3,5,7,9,11,13,15,17,19,21,23,25,27,29,31,33,35,37,39,41,-1,43,45,47,49,51,53,55,57,59,61,63,-1,65,67,69,71,73,75,-1,-1,77,79,81,83,-1,85,87,89,91,93,95,97,99,101,103,-1,105,107,109,-1,-1,-1,-1,-1,-1,-1,-1,-1,-1,-1,-1,-1,-1,-1,-1,-1,-1,-1,-1,-1,-1,-1,-1,-1,-1,-1,-1,-1,-1,-1,-1,-1,-1,-1,-1,-1,-1,-1,-1,-1,-1,-1,-1,-1,-1,-1,-1,-1,-1],"loss_changes":[3.6562662E0,1.1781958E1,1.35624895E1,2.1769333E1,1.4825624E1,2.8229452E1,2.663552E1,1.1211554E1,1.4970827E1,1.6675188E1,4.1009438E1,2.0040924E1,6.97439E1,2.462881E1,1.3469402E1,7.9396386E0,2.337819E1,1.2239127E0,3.2897343E1,5.6815636E1,3.112264E1,0E0,5.9758263E0,7.0975285E0,3.133326E1,4.91942E1,7.197714E0,9.244988E0,5.6537487E1,7.989731E0,9.344677E0,7.918766E0,1.2342196E1,0E0,9.564224E0,1.4697685E0,5.106561E-1,1.7681145E1,8.148201E0,4.517294E0,0E0,0E0,1.0542902E1,7.1940823E0,1.0730159E0,2.1224241E0,0E0,3.3491535E1,1.1360644E1,5.457431E1,1.2499295E0,4.0419455E0,5.321789E0,8.820353E0,1.1113236E1,2.6051468E1,8.161242E0,0E0,2.769317E-2,1.4409573E1,7.925926E0,0E0,0E0,0E0,0E0,0E0,0E0,0E0,0E0,0E0,0E0,0E0,0E0,0E0,0E0,0E0,0E0,0E0,0E0,0E0,0E0,0E0,0E0,0E0,0E0,0E0,0E0,0E0,0E0,0E0,0E0,0E0,0E0,0E0,0E0,0E0,0E0,0E0,0E0,0E0,0E0,0E0,0E0,0E0,0E0,0E0,0E0,0E0,0E0,0E0,0E0],"parents":[2147483647,0,0,1,1,2,2,3,3,4,4,5,5,6,6,7,7,8,8,9,9,10,10,11,11,12,12,13,13,14,14,15,15,16,16,17,17,18,18,19,19,20,20,22,22,23,23,24,24,25,25,26,26,27,27,28,28,29,29,30,30,31,31,32,32,34,34,35,35,36,36,37,37,38,38,39,39,42,42,43,43,44,44,45,45,47,47,48,48,49,49,50,50,51,51,52,52,53,53,54,54,55,55,56,56,58,58,59,59,60,60],"right_children":[2,4,6,8,10,12,14,16,18,20,22,24,26,28,30,32,34,36,38,40,42,-1,44,46,48,50,52,54,56,58,60,62,64,-1,66,68,70,72,74,76,-1,-1,78,80,82,84,-1,86,88,90,92,94,96,98,100,102,104,-1,106,108,110,-1,-1,-1,-1,-1,-1,-1,-1,-1,-1,-1,-1,-1,-1,-1,-1,-1,-1,-1,-1,-1,-1,-1,-1,-1,-1,-1,-1,-1,-1,-1,-1,-1,-1,-1,-1,-1,-1,-1,-1,-1,-1,-1,-1,-1,-1,-1,-1,-1,-1],"split_conditions":[1.4917212E1,1.272283E1,1.7551615E1,1.2287555E1,2.389794E2,2.3000002E0,1.8806337E1,1.6016253E1,6.96115E1,6.79125E0,2.3985866E2,1.0149443E2,3E0,8.638691E1,1.8899143E1,4E-1,1.6734999E1,4.8796566E1,1.4403938E2,9.396792E1,7.1495833E0,1.3959448E0,8.589168E0,2.1168333E1,2.3794652E2,1.9745413E1,2.3626512E2,1.4193334E1,2.4717755E2,1.6467233E2,1.5732915E1,1.1900832E2,1.6134026E2,8.1235594E-1,1E-1,6.152776E0,-3.629167E-1,4E-1,4.31E0,1.2984975E1,-9.66999E-1,8.660512E-1,1.8643332E1,2.501184E2,1.383192E1,1.7057314E1,4.3002334E-1,2E-1,2.4515262E2,4.0204167E0,2.0564167E1,1.5530151E1,1.1530835E1,-5.275E-1,1.7884428E1,8.432917E0,2.5298706E2,7.0215356E-1,4.4266663E0,4.464167E0,1.8205832E1,1.4479351E-2,-2.530897E-1,5.46135E-1,-7.179639E-2,-1.2288021E-1,5.859325E-1,5.4659873E-2,-3.2002795E-1,-9.304444E-2,1.04367286E-1,1.5578526E0,4.949663E-2,4.0376374E-1,-3.4877695E-2,-2.7686045E-1,9.126866E-2,-1.9509621E-1,7.021359E-2,5.369188E-1,2.3113653E-2,-2.2083318E-1,-5.0400276E-2,-1.2354525E-1,-3.13325E-1,4.1591626E-1,-5.891989E-2,-3.848181E-1,-2.1588248E-3,6.6221595E-2,1.9548069E0,-3.210246E-1,4.9261812E-2,9.138183E-2,-2.3888688E-1,5.7272017E-1,6.9018684E-2,4.038826E-1,-1.6130778E-1,6.199441E-1,7.2409645E-2,-7.1344197E-1,-2.5001603E-1,4.1231248E-1,9.911562E-4,-4.2966656E-2,1.03837615E-2,-2.863065E-2,4.358766E-2,-8.477733E-2,4.0350527E-2],"split_indices":[2,2,2,2,3,1,2,0,3,0,3,3,1,3,2,1,0,3,3,3,0,0,0,0,3,0,3,0,3,3,0,3,3,0,1,3,0,1,0,2,0,0,0,3,2,2,0,1,3,0,0,2,0,0,2,0,3,0,0,0,0,0,0,0,0,0,0,0,0,0,0,0,0,0,0,0,0,0,0,0,0,0,0,0,0,0,0,0,0,0,0,0,0,0,0,0,0,0,0,0,0,0,0,0,0,0,0,0,0,0,0],"split_type":[0,0,0,0,0,0,0,0,0,0,0,0,0,0,0,0,0,0,0,0,0,0,0,0,0,0,0,0,0,0,0,0,0,0,0,0,0,0,0,0,0,0,0,0,0,0,0,0,0,0,0,0,0,0,0,0,0,0,0,0,0,0,0,0,0,0,0,0,0,0,0,0,0,0,0,0,0,0,0,0,0,0,0,0,0,0,0,0,0,0,0,0,0,0,0,0,0,0,0,0,0,0,0,0,0,0,0,0,0,0,0],"sum_hessian":[1.84E3,2.15E2,1.625E3,9.4E1,1.21E2,1.94E2,1.431E3,7.1E1,2.3E1,9E1,3.1E1,1.66E2,2.8E1,1.16E2,1.315E3,5.6E1,1.5E1,6E0,1.7E1,2.2E1,6.8E1,1E0,3E1,4.6E1,1.2E2,8E0,2E1,3.1E1,8.5E1,5E0,1.31E3,4.3E1,1.3E1,3E0,1.2E1,3E0,3E0,3E0,1.4E1,1.4E1,8E0,2E0,6.6E1,1.6E1,1.4E1,4.5E1,1E0,5.8E1,6.2E1,6E0,2E0,1.2E1,8E0,1.6E1,1.5E1,4.8E1,3.7E1,3E0,2E0,1.088E3,2.22E2,1.5E1,2.8E1,3E0,1E1,1.1E1,1E0,1E0,2E0,1E0,2E0,2E0,1E0,7E0,7E0,3E0,1.1E1,4.8E1,1.8E1,2E0,1.4E1,7E0,7E0,3.9E1,6E0,3.8E1,2E1,7E0,5.5E1,2E0,4E0,1E0,1E0,5E0,7E0,2E0,6E0,2E0,1.4E1,4E0,1.1E1,1.8E1,3E1,4E0,3.3E1,1E0,1E0,3.83E2,7.05E2,1.59E2,6.3E1],"tree_param":{"num_deleted":"0","num_feature":"4","num_nodes":"111","size_leaf_vector":"1"}},{"base_weights":[8.432774E-3,4.3796785E-2,-6.128215E-2,9.253136E-3,3.964374E-1,-8.088792E-1,-3.242594E-2,2.1096254E-2,-5.795551E-1,1.2328302E0,-1.0629505E-1,-1.3155651E0,-1.8631006E-2,1.0865899E0,-4.75185E-2,6.976017E-4,5.074028E-1,-2.833329E-1,-5.5251646E-1,1.5102096E-1,2.3611786E0,4.4775743E-2,-2.0489564E0,-5.1469004E-1,-5.555656E-1,3.692314E-1,-3.3874452E-1,9.003887E-1,-6.624926E-1,-2.7272796E-2,-4.1236755E-1,-7.7158086E-2,1.3592948E-1,1.2174397E0,-3.0985774E-2,6.55395E-1,-5.003066E-1,1.9399872E0,-2.33552E-1,4.3345947E0,3.525116E-1,1.1330582E0,-2.2300628E-1,-7.953401E-2,-7.285916E-1,-2.7349985E-1,3.1849995E-1,1.7834361E-1,2.0907044E-2,-1.5615462E-1,1.6531467E-2,-2.5202474E-1,-7.922154E-2,-4.047112E-2,7.323319E-1,-8.502E-1,-2.2311279E-1,-6.968688E-2,2.8456666E-2,3.1455767E-1,2.4073852E-2,-1.047724E-1,7.16578E-1,-2.0924665E-1,9.119615E-2,-3.5337497E-2,2.8571633E-1,-3.4506887E-1,-3.0096209E-2,8.133775E-1,-5.607382E-2,-2.3039325E-1,1.7918408E-1,2.3298903E0,5.263177E-1,-2.548075E-1,8.0043715E-1,-1.8026577E-2,9.162332E-1,-4.068485E-1,2.161706E-2,2.9695202E-2,1.1362979E-1,-2.6345748E-2,3.575392E-2,8.640912E-2,-7.8969955E-2,-7.5303647E-3,-2.4116701E-1,-2.85847E-1,-4.381943E-3,-2.3569685E-1,-3.9637513E-2],"categories":[],"categories_nodes":[],"categories_segments":[],"categories_sizes":[],"default_left":[0,0,0,0,0,0,0,0,0,0,0,0,0,0,0,0,0,0,0,0,0,0,0,0,0,0,0,0,0,0,0,0,0,0,0,0,0,0,0,0,0,0,0,0,0,0,0,0,0,0,0,0,0,0,0,0,0,0,0,0,0,0,0,0,0,0,0,0,0,0,0,0,0,0,0,0,0,0,0,0,0,0,0,0,0,0,0,0,0,0,0,0,0],"id":16,"left_children":[1,3,5,7,9,11,13,15,17,19,21,23,25,27,29,31,33,35,-1,37,39,41,43,45,-1,47,49,-1,51,53,55,57,59,61,63,65,67,69,71,73,75,77,79,-1,-1,-1,81,-1,83,-1,85,-1,-1,87,-1,89,91,-1,-1,-1,-1,-1,-1,-1,-1,-1,-1,-1,-1,-1,-1,-1,-1,-1,-1,-1,-1,-1,-1,-1,-1,-1,-1,-1,-1,-1,-1,-1,-1,-1,-1,-1,-1],"loss_changes":[4.5414844E0,1.4882117E1,1.3348919E1,7.78051E0,4.5963554E1,9.184867E0,1.0151142E1,1.0842203E1,7.7035766E0,4.9690384E1,2.034182E1,5.0602074E0,1.3666751E0,2.8780159E1,4.354249E0,1.1065487E1,1.6857857E1,4.1978035E0,0E0,1.5588824E1,7.775073E1,1.919514E1,2.7426033E0,2.6056604E0,0E0,3.7986678E-1,3.960778E-1,0E0,1.319356E-1,1.8375315E1,2.3790274E0,1.7820753E1,1.9429352E1,3.569585E1,6.0167994E0,1.0307068E0,4.043969E0,7.068434E0,8.895039E0,7.49198E1,3.28799E1,2.9980785E1,1.7818398E1,0E0,0E0,0E0,2.1962523E-3,0E0,4.252071E-2,0E0,3.0368656E-1,0E0,0E0,6.5389466E0,0E0,7.578454E-1,1.07344E0,0E0,0E0,0E0,0E0,0E0,0E0,0E0,0E0,0E0,0E0,0E0,0E0,0E0,0E0,0E0,0E0,0E0,0E0,0E0,0E0,0E0,0E0,0E0,0E0,0E0,0E0,0E0,0E0,0E0,0E0,0E0,0E0,0E0,0E0,0E0,0E0],"parents":[2147483647,0,0,1,1,2,2,3,3,4,4,5,5,6,6,7,7,8,8,9,9,10,10,11,11,12,12,13,13,14,14,15,15,16,16,17,17,19,19,20,20,21,21,22,22,23,23,25,25,26,26,28,28,29,29,30,30,31,31,32,32,33,33,34,34,35,35,36,36,37,37,38,38,39,39,40,40,41,41,42,42,46,46,48,48,50,50,53,53,55,55,56,56],"right_children":[2,4,6,8,10,12,14,16,18,20,22,24,26,28,30,32,34,36,-1,38,40,42,44,46,-1,48,50,-1,52,54,56,58,60,62,64,66,68,70,72,74,76,78,80,-1,-1,-1,82,-1,84,-1,86,-1,-1,88,-1,90,92,-1,-1,-1,-1,-1,-1,-1,-1,-1,-1,-1,-1,-1,-1,-1,-1,-1,-1,-1,-1,-1,-1,-1,-1,-1,-1,-1,-1,-1,-1,-1,-1,-1,-1,-1,-1],"split_conditions":[2.6518099E1,2.538702E1,2.6867676E1,2.5140787E1,6.79125E0,2.1871364E2,2.6983196E1,2.4675106E1,1.7000002E0,3.2954166E0,7.7000003E0,1.201456E2,2.6661882E1,1.4035003E1,1.0700001E1,4E-1,1.5889252E2,5.896568E1,-5.5251646E-1,2.5516865E1,2.341453E2,1.2559929E2,2.6121714E1,2.6758923E1,-5.555656E-1,1.2489169E1,1.5999999E0,9.003887E-1,1.5134999E1,1.06E1,1.3500001E1,9.676668E0,5E-1,6.3232296E1,6.6245837E0,6.005833E0,2.5043204E2,1.035E0,2.6319422E1,5E-1,5.96625E0,5.6433605E1,1.0770417E1,-7.953401E-2,-7.285916E-1,-2.7349985E-1,-9.9625E-1,1.7834361E-1,1.5607915E1,-1.5615462E-1,1.1530835E1,-2.5202474E-1,-7.922154E-2,9.3E0,7.323319E-1,8.312084E0,2.8082308E1,-6.968688E-2,2.8456666E-2,3.1455767E-1,2.4073852E-2,-1.047724E-1,7.16578E-1,-2.0924665E-1,9.119615E-2,-3.5337497E-2,2.8571633E-1,-3.4506887E-1,-3.0096209E-2,8.133775E-1,-5.607382E-2,-2.3039325E-1,1.7918408E-1,2.3298903E0,5.263177E-1,-2.548075E-1,8.0043715E-1,-1.8026577E-2,9.162332E-1,-4.068485E-1,2.161706E-2,2.9695202E-2,1.1362979E-1,-2.6345748E-2,3.575392E-2,8.640912E-2,-7.8969955E-2,-7.5303647E-3,-2.4116701E-1,-2.85847E-1,-4.381943E-3,-2.3569685E-1,-3.9637513E-2],"split_indices":[2,2,2,2,0,3,2,2,1,0,1,3,2,0,1,1,3,3,0,2,3,3,2,2,0,0,1,0,0,1,1,0,1,3,0,0,3,0,2,1,0,3,0,0,0,0,0,0,0,0,0,0,0,1,0,0,2,0,0,0,0,0,0,0,0,0,0,0,0,0,0,0,0,0,0,0,0,0,0,0,0,0,0,0,0,0,0,0,0,0,0,0,0],"split_type":[0,0,0,0,0,0,0,0,0,0,0,0,0,0,0,0,0,0,0,0,0,0,0,0,0,0,0,0,0,0,0,0,0,0,0,0,0,0,0,0,0,0,0,0,0,0,0,0,0,0,0,0,0,0,0,0,0,0,0,0,0,0,0,0,0,0,0,0,0,0,0,0,0,0,0,0,0,0,0,0,0,0,0,0,0,0,0,0,0,0,0,0,0],"sum_hessian":[1.84E3,1.221E3,6.19E2,1.113E3,1.08E2,2.2E1,5.97E2,1.092E3,2.1E1,4E1,6.8E1,1.3E1,9E0,7E0,5.9E2,1.049E3,4.3E1,1.8E1,3E0,2.1E1,1.9E1,6.4E1,4E0,6E0,7E0,4E0,5E0,3E0,4E0,5.6E2,3E1,6.66E2,3.83E2,1.8E1,2.5E1,3E0,1.5E1,3E0,1.8E1,9E0,1E1,1.2E1,5.2E1,1E0,3E0,4E0,2E0,2E0,2E0,3E0,2E0,2E0,2E0,5.58E2,2E0,8E0,2.2E1,3.5E2,3.16E2,2.1E1,3.62E2,8E0,1E1,8E0,1.7E1,1E0,2E0,5E0,1E1,2E0,1E0,1.1E1,7E0,3E0,6E0,7E0,3E0,8E0,4E0,1E1,4.2E1,1E0,1E0,1E0,1E0,1E0,1E0,5.48E2,1E1,7E0,1E0,2E0,2E1],"tree_param":{"num_deleted":"0","num_feature":"4","num_nodes":"93","size_leaf_vector":"1"}},{"base_weights":[7.949184E-3,7.412275E-2,-3.73029E-2,5.159842E-2,2.1511736E0,-3.719898E-1,-1.0886885E-2,1.269991E-1,-7.0876874E-2,1.6019871E0,1.982531E-1,-2.2383216E-1,-1.6774294E0,7.191901E-1,-2.7786065E-2,6.85881E-2,1.2841363E0,-1.1884455E-1,1.8373976E0,-4.613871E-1,8.530865E-1,-8.944026E-1,4.6088807E-2,-2.8674203E-1,-2.0932014E0,1.6510398E0,-6.573184E-1,-2.3945984E-1,2.1159506E-4,9.137933E-2,-1.027947E0,2.5345604E0,-4.6982887E-1,-4.2916065E-1,4.0332407E-2,3.116049E0,-9.06154E-1,3.769581E-1,4.9585164E-2,-1.4019463E0,1.6131446E0,-1.5019128E-2,4.8355523E-1,-1.16634995E-1,-1.2398923E-2,-8.57275E-1,-3.7629187E-1,2.5999742E0,-5.770367E-1,-2.4178563E-1,1.020577E-1,-5.61918E-1,9.268656E-2,4.9293816E-1,-3.45976E-2,-1.7659944E-2,1.0208925E-1,7.7530995E-2,-6.326224E-1,9.848909E-2,1.3136233E0,-2.1127579E-1,-2.836639E-2,1.5138468E-1,-1.7557675E-1,3.782978E-2,-1.4571483E-1,1.4185781E0,1.3944636E-1,-2.5297238E-2,-3.8247207E-1,-6.1337326E-2,-8.6197495E-1,7.0677835E-1,-9.2280656E-2,7.0841275E-2,-1.5076351E-1,1.0818064E-2,-1.801494E-1,-2.8098443E-1,1.0803595E0,-2.4936491E-1,6.595232E-2,-2.4287415E-1,1.4153618E-2,1.7464349E-1,-2.2884225E-2,-3.8974476E-3,5.832408E-1,-1.7887266E-1,-2.4243332E-3],"categories":[],"categories_nodes":[],"categories_segments":[],"categories_sizes":[],"default_left":[0,0,0,0,0,0,0,0,0,0,0,0,0,0,0,0,0,0,0,0,0,0,0,0,0,0,0,0,0,0,0,0,0,0,0,0,0,0,0,0,0,0,0,0,0,0,0,0,0,0,0,0,0,0,0,0,0,0,0,0,0,0,0,0,0,0,0,0,0,0,0,0,0,0,0,0,0,0,0,0,0,0,0,0,0,0,0,0,0,0,0],"id":17,"left_children":[1,3,5,7,9,11,13,15,17,-1,19,21,23,25,27,29,31,33,35,-1,37,39,41,43,45,47,49,51,53,55,57,59,61,63,65,67,69,-1,-1,71,73,75,-1,-1,-1,-1,77,79,81,-1,-1,83,85,87,89,-1,-1,-1,-1,-1,-1,-1,-1,-1,-1,-1,-1,-1,-1,-1,-1,-1,-1,-1,-1,-1,-1,-1,-1,-1,-1,-1,-1,-1,-1,-1,-1,-1,-1,-1,-1],"loss_changes":[5.5156245E0,3.488357E1,9.668106E0,6.851928E0,4.8760857E1,1.50974045E1,1.2542751E1,3.0935518E1,2.6122904E1,0E0,8.13358E0,1.3254296E1,4.025463E0,3.0587337E1,5.8849363E0,1.1040158E1,4.9441223E1,1.369977E1,2.7379942E1,0E0,1.1797533E0,2.898803E1,5.095274E0,5.905825E-2,6.7989616E0,3.1100449E1,1.7568159E0,1.24760685E1,1.5075997E1,1.6101562E1,1.305782E1,5.1456284E1,8.131416E-1,1.3996576E1,8.362872E0,1.917817E1,8.01651E-1,0E0,0E0,3.1126186E1,6.4314804E0,6.48583E0,0E0,0E0,0E0,0E0,2.990097E-1,3.878212E1,1.1954862E0,0E0,0E0,8.93837E0,4.8411493E0,4.260909E1,1.2222207E1,0E0,0E0,0E0,0E0,0E0,0E0,0E0,0E0,0E0,0E0,0E0,0E0,0E0,0E0,0E0,0E0,0E0,0E0,0E0,0E0,0E0,0E0,0E0,0E0,0E0,0E0,0E0,0E0,0E0,0E0,0E0,0E0,0E0,0E0,0E0,0E0],"parents":[2147483647,0,0,1,1,2,2,3,3,4,4,5,5,6,6,7,7,8,8,10,10,11,11,12,12,13,13,14,14,15,15,16,16,17,17,18,18,20,20,21,21,22,22,23,23,24,24,25,25,26,26,27,27,28,28,29,29,30,30,31,31,32,32,33,33,34,34,35,35,36,36,39,39,40,40,41,41,46,46,47,47,48,48,51,51,52,52,53,53,54,54],"right_children":[2,4,6,8,10,12,14,16,18,-1,20,22,24,26,28,30,32,34,36,-1,38,40,42,44,46,48,50,52,54,56,58,60,62,64,66,68,70,-1,-1,72,74,76,-1,-1,-1,-1,78,80,82,-1,-1,84,86,88,90,-1,-1,-1,-1,-1,-1,-1,-1,-1,-1,-1,-1,-1,-1,-1,-1,-1,-1,-1,-1,-1,-1,-1,-1,-1,-1,-1,-1,-1,-1,-1,-1,-1,-1,-1,-1],"split_conditions":[6.439167E0,6.3933334E0,7.2641673E0,2.6518099E1,2.0396248E2,7.1495833E0,7.4912505E0,2.5944988E1,6.2225013E0,1.6019871E0,1.645007E1,1.6920221E2,7.6952065E1,5E-1,8.970416E0,6.2225013E0,2.4216885E2,3.1003918E1,3.4860565E1,-4.613871E-1,1E-1,7.06625E0,8.1E0,1E-1,2.2175105E2,2.7098337E2,1.73E1,2.254197E2,9.910001E0,4E-1,1E-1,3.2954166E0,2.6839102E2,4.6E-1,5.7266674E0,5.6E0,8.000001E-1,3.769581E-1,4.9585164E-2,8.198289E1,1.477755E1,3.2396E1,4.8355523E-1,-1.16634995E-1,-1.2398923E-2,-8.57275E-1,1E-1,5.0134315E1,3.3933697E1,-2.4178563E-1,1.020577E-1,2.7E0,2.4571829E2,9.676668E0,1.0407918E1,-1.7659944E-2,1.0208925E-1,7.7530995E-2,-6.326224E-1,9.848909E-2,1.3136233E0,-2.1127579E-1,-2.836639E-2,1.5138468E-1,-1.7557675E-1,3.782978E-2,-1.4571483E-1,1.4185781E0,1.3944636E-1,-2.5297238E-2,-3.8247207E-1,-6.1337326E-2,-8.6197495E-1,7.0677835E-1,-9.2280656E-2,7.0841275E-2,-1.5076351E-1,1.0818064E-2,-1.801494E-1,-2.8098443E-1,1.0803595E0,-2.4936491E-1,6.595232E-2,-2.4287415E-1,1.4153618E-2,1.7464349E-1,-2.2884225E-2,-3.8974476E-3,5.832408E-1,-1.7887266E-1,-2.4243332E-3],"split_indices":[0,0,0,2,3,0,0,2,0,0,2,3,3,1,0,0,3,2,2,0,1,0,1,1,3,3,1,3,0,1,1,0,3,0,0,1,1,0,0,3,2,2,0,0,0,0,1,3,2,0,0,1,3,0,0,0,0,0,0,0,0,0,0,0,0,0,0,0,0,0,0,0,0,0,0,0,0,0,0,0,0,0,0,0,0,0,0,0,0,0,0],"split_type":[0,0,0,0,0,0,0,0,0,0,0,0,0,0,0,0,0,0,0,0,0,0,0,0,0,0,0,0,0,0,0,0,0,0,0,0,0,0,0,0,0,0,0,0,0,0,0,0,0,0,0,0,0,0,0,0,0,0,0,0,0,0,0,0,0,0,0,0,0,0,0,0,0,0,0,0,0,0,0,0,0,0,0,0,0,0,0,0,0,0,0],"sum_hessian":[1.84E3,7.47E2,1.093E3,7.4E2,7E0,7.9E1,1.014E3,4.58E2,2.82E2,2E0,5E0,7.2E1,7E0,2.2E1,9.92E2,4.37E2,2.1E1,2.76E2,6E0,1E0,4E0,2E1,5.2E1,2E0,5E0,1.3E1,9E0,1.15E2,8.77E2,4.29E2,8E0,1.2E1,9E0,9.3E1,1.83E2,4E0,2E0,2E0,2E0,1.7E1,3E0,5.1E1,1E0,1E0,1E0,3E0,2E0,9E0,4E0,8E0,1E0,5.8E1,5.7E1,5.7E1,8.2E2,2.68E2,1.61E2,4E0,4E0,6E0,6E0,5E0,4E0,1.3E1,8E1,1.58E2,2.5E1,2E0,2E0,1E0,1E0,1E1,7E0,2E0,1E0,3.4E1,1.7E1,1E0,1E0,2E0,7E0,3E0,1E0,4.1E1,1.7E1,1.4E1,4.3E1,4.3E1,1.4E1,3.6E1,7.84E2],"tree_param":{"num_deleted":"0","num_feature":"4","num_nodes":"91","size_leaf_vector":"1"}},{"base_weights":[7.206798E-3,4.535983E-2,-4.580112E-2,1.6755676E-2,2.0579755E0,-7.804592E-2,2.1535155E-1,3.2617126E-2,-5.273219E-1,4.820374E0,-9.6166986E-1,-2.2136986E-1,9.202375E-3,1.1440665E0,1.0400369E-1,1.2249878E-2,9.63399E-1,4.1860706E-1,-8.9032364E-1,-4.7670782E-1,2.1665037E0,-3.760167E-1,-3.5660347E-1,-5.4693097E-1,2.86962E-2,7.650826E-1,-1.4441002E-2,2.5773633E-1,1.2352061E0,4.6567595E-1,-5.8665533E-2,2.0780668E-2,-9.360288E-1,3.4808064E0,-4.434449E-1,9.033249E-1,-4.1312152E-1,-1.4969772E0,-1.4758122E-1,-1.7346919E-2,-1.3107678E-1,-6.606138E-1,8.4013855E-1,1.2598557E0,-1.406898E-1,1.0321721E-1,2.2284753E0,-5.643652E-1,1.0403803E-2,-3.3226848E-1,6.1100197E-1,1.8313906E-1,2.3823879E0,3.2543337E-1,-4.269514E-1,1.00233E-2,-1.2552433E-1,-4.2836294E-1,1.0724947E-2,3.0865315E-1,2.167339E0,-1.7216293E-2,-3.0388987E-1,-6.900549E-3,4.1167164E-1,-1.6495022E-1,-4.475713E-4,-5.941686E-1,-1.0400262E-2,2.8240217E-2,-2.4706E-1,-4.2724738E-1,-1.13415495E-1,1.2447295E0,-2.763561E-2,6.983728E-1,-2.2532181E-1,-5.3928886E-2,3.4344694E-1,1.653546E-1,-8.61869E-2,1.1376444E0,1.3296057E-1,-1.9689754E-1,3.4262728E-2,1.3956008E-2,-1.065181E-1,2.1497104E-1,-3.3610046E-3,1.349833E-1,-2.4419631E-1,8.961807E-1,1.758939E-1,2.178452E-1,-1.6700539E-1,-1.9984387E-1,-5.257186E-2],"categories":[],"categories_nodes":[],"categories_segments":[],"categories_sizes":[],"default_left":[0,0,0,0,0,0,0,0,0,0,0,0,0,0,0,0,0,0,0,0,0,0,0,0,0,0,0,0,0,0,0,0,0,0,0,0,0,0,0,0,0,0,0,0,0,0,0,0,0,0,0,0,0,0,0,0,0,0,0,0,0,0,0,0,0,0,0,0,0,0,0,0,0,0,0,0,0,0,0,0,0,0,0,0,